{"learner":{"attributes":{"scikit_learn":"{\"_estimator_type\": \"classifier\"}"},"feature_names":["scaled__age","scaled__account_age","scaled__product_price","scaled__ordered_quantity","scaled__payment_amount","remainder__age_category","remainder__account_age_category","remainder__payment_hour_category","remainder__is_weekend","remainder__second_sin","remainder__second_cos","remainder__minute_sin","remainder__minute_cos","remainder__hour_sin","remainder__hour_cos","remainder__day_sin","remainder__day_cos","remainder__month_sin","remainder__month_cos","remainder__payment_method_PayPal","remainder__payment_method_bank transfer","remainder__payment_method_credit card","remainder__payment_method_debit card","remainder__device_used_desktop","remainder__device_used_mobile","remainder__device_used_tablet","remainder__product_category_clothing","remainder__product_category_electronics","remainder__product_category_health & beauty","remainder__product_category_home & garden","remainder__product_category_toys & games","remainder__billing_country_Cambodia","remainder__billing_country_China","remainder__billing_country_India","remainder__billing_country_Laos","remainder__billing_country_South Korea","remainder__billing_country_Vietnam","remainder__shipping_country_Cambodia","remainder__shipping_country_China","remainder__shipping_country_India","remainder__shipping_country_Laos","remainder__shipping_country_South Korea","remainder__shipping_country_Vietnam","remainder__encoded_billing_province","remainder__encoded_shipping_province","remainder__encoded_billing_city","remainder__encoded_shipping_city","remainder__street_is_different","remainder__province_is_different","MSE_rate","anomaly_score"],"feature_types":["float","float","float","float","float","float","float","float","float","float","float","float","float","float","float","float","float","float","float","float","float","float","float","float","float","float","float","float","float","float","float","float","float","float","float","float","float","float","float","float","float","float","float","float","float","float","float","float","float","float","float"],"gradient_booster":{"model":{"gbtree_model_param":{"num_parallel_tree":"1","num_trees":"350"},"iteration_indptr":[0,1,2,3,4,5,6,7,8,9,10,11,12,13,14,15,16,17,18,19,20,21,22,23,24,25,26,27,28,29,30,31,32,33,34,35,36,37,38,39,40,41,42,43,44,45,46,47,48,49,50,51,52,53,54,55,56,57,58,59,60,61,62,63,64,65,66,67,68,69,70,71,72,73,74,75,76,77,78,79,80,81,82,83,84,85,86,87,88,89,90,91,92,93,94,95,96,97,98,99,100,101,102,103,104,105,106,107,108,109,110,111,112,113,114,115,116,117,118,119,120,121,122,123,124,125,126,127,128,129,130,131,132,133,134,135,136,137,138,139,140,141,142,143,144,145,146,147,148,149,150,151,152,153,154,155,156,157,158,159,160,161,162,163,164,165,166,167,168,169,170,171,172,173,174,175,176,177,178,179,180,181,182,183,184,185,186,187,188,189,190,191,192,193,194,195,196,197,198,199,200,201,202,203,204,205,206,207,208,209,210,211,212,213,214,215,216,217,218,219,220,221,222,223,224,225,226,227,228,229,230,231,232,233,234,235,236,237,238,239,240,241,242,243,244,245,246,247,248,249,250,251,252,253,254,255,256,257,258,259,260,261,262,263,264,265,266,267,268,269,270,271,272,273,274,275,276,277,278,279,280,281,282,283,284,285,286,287,288,289,290,291,292,293,294,295,296,297,298,299,300,301,302,303,304,305,306,307,308,309,310,311,312,313,314,315,316,317,318,319,320,321,322,323,324,325,326,327,328,329,330,331,332,333,334,335,336,337,338,339,340,341,342,343,344,345,346,347,348,349,350],"tree_info":[0,0,0,0,0,0,0,0,0,0,0,0,0,0,0,0,0,0,0,0,0,0,0,0,0,0,0,0,0,0,0,0,0,0,0,0,0,0,0,0,0,0,0,0,0,0,0,0,0,0,0,0,0,0,0,0,0,0,0,0,0,0,0,0,0,0,0,0,0,0,0,0,0,0,0,0,0,0,0,0,0,0,0,0,0,0,0,0,0,0,0,0,0,0,0,0,0,0,0,0,0,0,0,0,0,0,0,0,0,0,0,0,0,0,0,0,0,0,0,0,0,0,0,0,0,0,0,0,0,0,0,0,0,0,0,0,0,0,0,0,0,0,0,0,0,0,0,0,0,0,0,0,0,0,0,0,0,0,0,0,0,0,0,0,0,0,0,0,0,0,0,0,0,0,0,0,0,0,0,0,0,0,0,0,0,0,0,0,0,0,0,0,0,0,0,0,0,0,0,0,0,0,0,0,0,0,0,0,0,0,0,0,0,0,0,0,0,0,0,0,0,0,0,0,0,0,0,0,0,0,0,0,0,0,0,0,0,0,0,0,0,0,0,0,0,0,0,0,0,0,0,0,0,0,0,0,0,0,0,0,0,0,0,0,0,0,0,0,0,0,0,0,0,0,0,0,0,0,0,0,0,0,0,0,0,0,0,0,0,0,0,0,0,0,0,0,0,0,0,0,0,0,0,0,0,0,0,0,0,0,0,0,0,0,0,0,0,0,0,0,0,0,0,0,0,0,0,0,0,0,0,0,0,0,0,0,0,0,0,0,0,0,0,0,0,0,0,0,0,0],"trees":[{"base_weights":[-2.4054719E-3,-9.999865E-2,1.9930557E0,9.846451E-2,9.9998266E-2],"categories":[],"categories_nodes":[],"categories_segments":[],"categories_sizes":[],"default_left":[0,0,0,0,0],"id":0,"left_children":[1,-1,3,-1,-1],"loss_changes":[5.9320875E5,0E0,8.28125E0,0E0,0E0],"parents":[2147483647,0,0,2,2],"right_children":[2,-1,4,-1,-1],"split_conditions":[1.645836E-1,-9.999865E-2,1.7547724E-1,9.846451E-2,9.9998266E-2],"split_indices":[49,0,49,0,0],"split_type":[0,0,0,0,0],"sum_hessian":[1.4881852E5,7.437E4,7.444851E4,1.683399E4,5.761452E4],"tree_param":{"num_deleted":"0","num_feature":"51","num_nodes":"5","size_leaf_vector":"1"}},{"base_weights":[1.7713433E-3,-9.524065E-2,1.8982095E0,9.3787424E-2,9.5240295E-2],"categories":[],"categories_nodes":[],"categories_segments":[],"categories_sizes":[],"default_left":[0,0,0,0,0],"id":1,"left_children":[1,-1,3,-1,-1],"loss_changes":[5.377522E5,0E0,7.4375E0,0E0,0E0],"parents":[2147483647,0,0,2,2],"right_children":[2,-1,4,-1,-1],"split_conditions":[1.645836E-1,-9.524065E-2,1.7547724E-1,9.3787424E-2,9.5240295E-2],"split_indices":[49,0,49,0,0],"split_type":[0,0,0,0,0],"sum_hessian":[1.4872417E5,7.4163695E4,7.4560484E4,1.6991012E4,5.7569477E4],"tree_param":{"num_deleted":"0","num_feature":"51","num_nodes":"5","size_leaf_vector":"1"}},{"base_weights":[-8.560865E-3,-9.113065E-2,1.816107E0,8.967896E-2,9.1130316E-2],"categories":[],"categories_nodes":[],"categories_segments":[],"categories_sizes":[],"default_left":[0,0,0,0,0],"id":2,"left_children":[1,-1,3,-1,-1],"loss_changes":[4.8624034E5,0E0,7.4375E0,0E0,0E0],"parents":[2147483647,0,0,2,2],"right_children":[2,-1,4,-1,-1],"split_conditions":[1.645836E-1,-9.113065E-2,1.7547724E-1,8.967896E-2,9.1130316E-2],"split_indices":[49,0,49,0,0],"split_type":[0,0,0,0,0],"sum_hessian":[1.4689652E5,7.366254E4,7.323398E4,1.64592E4,5.6774777E4],"tree_param":{"num_deleted":"0","num_feature":"51","num_nodes":"5","size_leaf_vector":"1"}},{"base_weights":[-1.8492532E-3,-8.754804E-2,1.7447464E0,8.613537E-2,8.754774E-2],"categories":[],"categories_nodes":[],"categories_segments":[],"categories_sizes":[],"default_left":[0,0,0,0,0],"id":3,"left_children":[1,-1,3,-1,-1],"loss_changes":[4.4526625E5,0E0,6.96875E0,0E0,0E0],"parents":[2147483647,0,0,2,2],"right_children":[2,-1,4,-1,-1],"split_conditions":[1.645836E-1,-8.754804E-2,1.7547724E-1,8.613537E-2,8.754774E-2],"split_indices":[49,0,49,0,0],"split_type":[0,0,0,0,0],"sum_hessian":[1.4574845E5,7.282178E4,7.292667E4,1.6089426E4,5.6837246E4],"tree_param":{"num_deleted":"0","num_feature":"51","num_nodes":"5","size_leaf_vector":"1"}},{"base_weights":[1.3050608E-3,1.2900971E0,-1.6395597E0,1.38501E0,-1.5628994E0,-1.0191054E0,-1.6798625E0,8.043764E-1,1.5593019E0,-1.071594E0,-8.436087E-2,-1.5735856E0,-3.359732E-1,-1.6838884E0,-1.2856154E0,1.1890572E0,-9.6140426E-1,1.5773203E0,8.87002E-1,-8.414692E-2,-3.4623805E-2,-2.7889875E-1,-1.6093203E0,1.7177175E-1,-8.4223524E-2,-1.4175467E0,-1.6852492E0,-3.4567055E-1,-8.424586E-2,1.3427998E0,-7.828951E-1,5.5940014E-1,-1.316771E0,1.5934047E0,1.0441674E0,1.1833159E0,-8.388316E-2,-8.324477E-2,9.216906E-1,1.2499272E0,-8.171578E-2,-9.8534435E-1,-8.436083E-2,-1.3780471E0,5.766318E-1,-2.9977519E-2,-8.4072575E-2,-1.5955127E0,-8.440034E-2,-8.342294E-2,8.4156585E-1,7.591181E-2,3.908348E-2,6.399337E-2,-6.549298E-2,4.9920533E-2,-5.286957E-2,-8.221528E-2,-2.5027096E-2,8.267681E-2,7.503815E-2,-5.7289507E-2,6.2823355E-2,6.388389E-2,-8.275392E-2,-8.0093816E-2,6.9012165E-2,8.101253E-2,-6.4009845E-2,-8.386649E-2,2.32724E-2,-8.4172E-2,-8.626156E-3,4.0751193E-2,-8.352372E-2,-8.0648825E-2,6.143388E-2,-8.43501E-2,-2.0214804E-2,-7.998495E-2,7.13449E-2],"categories":[],"categories_nodes":[],"categories_segments":[],"categories_sizes":[],"default_left":[0,0,0,0,0,0,0,0,0,0,0,0,0,0,0,0,0,0,0,0,0,0,0,0,0,0,0,0,0,0,0,0,0,0,0,0,0,0,0,0,0,0,0,0,0,0,0,0,0,0,0,0,0,0,0,0,0,0,0,0,0,0,0,0,0,0,0,0,0,0,0,0,0,0,0,0,0,0,0,0,0],"id":4,"left_children":[1,3,5,7,9,11,13,15,17,19,-1,21,23,25,27,29,31,33,35,-1,37,39,41,43,-1,45,47,49,-1,51,53,55,57,59,61,63,-1,-1,65,67,-1,69,-1,71,73,75,-1,77,-1,-1,79,-1,-1,-1,-1,-1,-1,-1,-1,-1,-1,-1,-1,-1,-1,-1,-1,-1,-1,-1,-1,-1,-1,-1,-1,-1,-1,-1,-1,-1,-1],"loss_changes":[3.0420956E5,2.181939E4,1.5807344E3,7.889922E3,1.566626E2,1.4624985E3,9.215625E1,1.2231051E4,7.251094E2,3.3382898E2,0E0,9.8174805E1,1.1859968E3,1.8921875E1,2.2644623E2,4.483285E3,1.7416597E3,4.991875E2,1.1933341E3,0E0,3.0767322E2,1.231965E2,9.915625E1,7.907386E2,0E0,1.117334E2,1.178125E1,2.866137E2,0E0,1.3490039E3,1.1646887E3,4.3462836E2,6.9732715E2,3.1332812E2,7.9800854E2,3.7866455E2,0E0,0E0,1.4617285E2,2.8348797E1,0E0,2.34304E2,0E0,9.5819E1,5.364652E2,1.0120462E2,0E0,1.9142285E2,0E0,0E0,1.3999469E2,0E0,0E0,0E0,0E0,0E0,0E0,0E0,0E0,0E0,0E0,0E0,0E0,0E0,0E0,0E0,0E0,0E0,0E0,0E0,0E0,0E0,0E0,0E0,0E0,0E0,0E0,0E0,0E0,0E0,0E0],"parents":[2147483647,0,0,1,1,2,2,3,3,4,4,5,5,6,6,7,7,8,8,9,9,11,11,12,12,13,13,14,14,15,15,16,16,17,17,18,18,20,20,21,21,22,22,23,23,25,25,26,26,27,27,29,29,30,30,31,31,32,32,33,33,34,34,35,35,38,38,39,39,41,41,43,43,44,44,45,45,47,47,50,50],"right_children":[2,4,6,8,10,12,14,16,18,20,-1,22,24,26,28,30,32,34,36,-1,38,40,42,44,-1,46,48,50,-1,52,54,56,58,60,62,64,-1,-1,66,68,-1,70,-1,72,74,76,-1,78,-1,-1,80,-1,-1,-1,-1,-1,-1,-1,-1,-1,-1,-1,-1,-1,-1,-1,-1,-1,-1,-1,-1,-1,-1,-1,-1,-1,-1,-1,-1,-1,-1],"split_conditions":[3.006478E-2,6.901526E-1,3.7485793E-2,1E0,1.2788131E-2,1E0,1E0,7.3205084E-1,1E0,7.5E-1,-8.436087E-2,2.7390523E-3,1.745531E-1,3.813301E-2,1.4644662E-1,1E0,-3.5460503E-3,2.5539244E-2,1.1724628E-2,-8.414692E-2,1E0,9.9031135E-2,3.0794047E-2,4.0384614E-1,-8.4223524E-2,2.4471741E-2,8.9748666E-2,1E0,-8.424586E-2,9.420265E-3,-6.137516E-3,1E0,1E0,-1.1947993E-3,2.0967741E-1,1E0,-8.388316E-2,-8.324477E-2,1E0,2.6092666E-1,-8.171578E-2,9.829629E-1,-8.436083E-2,9.829629E-1,8.535534E-1,1E0,-8.4072575E-2,5.483871E-1,-8.440034E-2,-8.342294E-2,1E0,7.591181E-2,3.908348E-2,6.399337E-2,-6.549298E-2,4.9920533E-2,-5.286957E-2,-8.221528E-2,-2.5027096E-2,8.267681E-2,7.503815E-2,-5.7289507E-2,6.2823355E-2,6.388389E-2,-8.275392E-2,-8.0093816E-2,6.9012165E-2,8.101253E-2,-6.4009845E-2,-8.386649E-2,2.32724E-2,-8.4172E-2,-8.626156E-3,4.0751193E-2,-8.352372E-2,-8.0648825E-2,6.143388E-2,-8.43501E-2,-2.0214804E-2,-7.998495E-2,7.13449E-2],"split_indices":[50,45,50,8,50,23,47,17,17,1,0,11,44,50,13,24,50,50,50,0,23,15,50,1,0,11,2,21,0,50,50,17,29,50,0,27,0,0,19,4,0,13,0,13,14,29,0,0,0,0,8,0,0,0,0,0,0,0,0,0,0,0,0,0,0,0,0,0,0,0,0,0,0,0,0,0,0,0,0,0,0],"split_type":[0,0,0,0,0,0,0,0,0,0,0,0,0,0,0,0,0,0,0,0,0,0,0,0,0,0,0,0,0,0,0,0,0,0,0,0,0,0,0,0,0,0,0,0,0,0,0,0,0,0,0,0,0,0,0,0,0,0,0,0,0,0,0,0,0,0,0,0,0,0,0,0,0,0,0,0,0,0,0,0,0],"sum_hessian":[1.4385042E5,8.056897E4,6.3281445E4,7.7975414E4,2.5935552E3,3.8614382E3,5.9420008E4,1.8003701E4,5.9971715E4,5.25681E2,2.067874E3,2.1307014E3,1.7307369E3,5.8816117E4,6.038908E2,1.4783415E4,3.2202864E3,5.840504E4,1.5666758E3,3.30319E2,1.9536206E2,5.746634E1,2.0732349E3,1.2579558E3,4.7278113E2,3.0426538E2,5.851185E4,1.806087E2,4.2328207E2,1.3714489E4,1.0689258E3,6.0984766E2,2.6104387E3,5.669272E4,1.712319E3,1.4048967E3,1.6177904E2,7.195545E1,1.234066E2,2.7042221E1,3.0424118E1,2.3160979E2,1.8416252E3,2.600544E2,9.979014E2,4.8799397E1,2.55466E2,1.7616984E3,5.6750152E4,8.523582E1,9.537288E1,1.0446653E4,3.2678357E3,2.1721716E2,8.517087E2,4.799173E2,1.2993037E2,1.8621749E3,7.482639E2,3.4368258E4,2.2324463E4,1.5093776E2,1.5613812E3,1.3602261E3,4.467059E1,1.8592516E1,1.0481409E2,2.3903225E1,3.1389961E0,1.5670834E2,7.4901436E1,2.0717479E2,5.2879612E1,9.027657E2,9.5135735E1,2.1490051E1,2.7309343E1,1.6356584E3,1.26039894E2,1.8109594E1,7.726328E1],"tree_param":{"num_deleted":"0","num_feature":"51","num_nodes":"81","size_leaf_vector":"1"}},{"base_weights":[1.0582522E-2,-1.6381049E0,1.6317109E0,-1.6829947E0,-8.173159E-2,8.069553E-2,8.184172E-2,-8.339044E-2,-8.66523E-2],"categories":[],"categories_nodes":[],"categories_segments":[],"categories_sizes":[],"default_left":[0,0,0,0,0,0,0,0,0],"id":5,"left_children":[1,3,5,7,-1,-1,-1,-1,-1],"loss_changes":[3.8116897E5,8.28125E0,3.90625E0,9.4433594E-1,0E0,0E0,0E0,0E0,0E0],"parents":[2147483647,0,0,1,1,2,2,3,3],"right_children":[2,4,6,8,-1,-1,-1,-1,-1],"split_conditions":[1.645836E-1,6.446602E-1,1.7547724E-1,1E0,-8.173159E-2,8.069553E-2,8.184172E-2,-8.339044E-2,-8.66523E-2],"split_indices":[49,45,49,8,0,0,0,0,0],"split_type":[0,0,0,0,0,0,0,0,0],"sum_hessian":[1.4261188E5,7.0704945E4,7.190693E4,5.0429937E3,6.566195E4,1.6141721E4,5.576521E4,3.895413E3,1.1475803E3],"tree_param":{"num_deleted":"0","num_feature":"51","num_nodes":"9","size_leaf_vector":"1"}},{"base_weights":[-1.8695778E-4,-1.5879773E0,1.5814096E0,-1.6196736E0,-7.915556E-2,7.8114524E-2,7.93447E-2,-1.6327242E0,-7.912589E-2,-8.079333E-2,-8.333603E-2],"categories":[],"categories_nodes":[],"categories_segments":[],"categories_sizes":[],"default_left":[0,0,0,0,0,0,0,0,0,0,0],"id":6,"left_children":[1,3,5,7,-1,-1,-1,9,-1,-1,-1],"loss_changes":[3.489502E5,8.140625E0,4.8125E0,1.8710938E0,0E0,0E0,0E0,1.1855469E0,0E0,0E0,0E0],"parents":[2147483647,0,0,1,1,2,2,3,3,7,7],"right_children":[2,4,6,8,-1,-1,-1,10,-1,-1,-1],"split_conditions":[1.645836E-1,3.006478E-2,1.7547724E-1,6.901526E-1,-7.915556E-2,7.8114524E-2,7.93447E-2,1E0,-7.912589E-2,-8.079333E-2,-8.333603E-2],"split_indices":[49,50,49,45,0,0,0,8,0,0,0],"split_type":[0,0,0,0,0,0,0,0,0,0,0],"sum_hessian":[1.3895311E5,6.934078E4,6.961233E4,9.184632E3,6.0156145E4,1.5580842E4,5.403149E4,6.7654165E3,2.4192148E3,4.5551865E3,2.2102302E3],"tree_param":{"num_deleted":"0","num_feature":"51","num_nodes":"11","size_leaf_vector":"1"}},{"base_weights":[-5.5460776E-3,-1.5431012E0,1.5362979E0,-1.5714949E0,-7.6936744E-2,7.583187E-2,7.710523E-2,-1.5831172E0,-7.6907925E-2,-7.8405015E-2,-8.0672756E-2],"categories":[],"categories_nodes":[],"categories_segments":[],"categories_sizes":[],"default_left":[0,0,0,0,0,0,0,0,0,0,0],"id":7,"left_children":[1,3,5,7,-1,-1,-1,9,-1,-1,-1],"loss_changes":[3.2124572E5,5.984375E0,5.375E0,1.0507812E0,0E0,0E0,0E0,4.921875E-1,0E0,0E0,0E0],"parents":[2147483647,0,0,1,1,2,2,3,3,7,7],"right_children":[2,4,6,8,-1,-1,-1,10,-1,-1,-1],"split_conditions":[1.645836E-1,3.006478E-2,1.7547724E-1,6.901526E-1,-7.6936744E-2,7.583187E-2,7.710523E-2,1E0,-7.6907925E-2,-7.8405015E-2,-8.0672756E-2],"split_indices":[49,50,49,45,0,0,0,8,0,0,0],"split_type":[0,0,0,0,0,0,0,0,0,0,0],"sum_hessian":[1.3550639E5,6.7847555E4,6.765883E4,8.99497E3,5.8852586E4,1.5486498E4,5.2172332E4,6.635201E3,2.359769E3,4.473527E3,2.1616743E3],"tree_param":{"num_deleted":"0","num_feature":"51","num_nodes":"11","size_leaf_vector":"1"}},{"base_weights":[5.3179925E-3,-1.5027791E0,1.4960749E0,-1.5283344E0,-7.494175E-2,7.3797725E-2,7.5093076E-2,-7.694488E-2,-7.491227E-2],"categories":[],"categories_nodes":[],"categories_segments":[],"categories_sizes":[],"default_left":[0,0,0,0,0,0,0,0,0],"id":8,"left_children":[1,3,5,7,-1,-1,-1,-1,-1],"loss_changes":[2.9941566E5,4.375E0,5.578125E0,4.9023438E-1,0E0,0E0,0E0,0E0,0E0],"parents":[2147483647,0,0,1,1,2,2,3,3],"right_children":[2,4,6,8,-1,-1,-1,-1,-1],"split_conditions":[1.645836E-1,3.006478E-2,1.7547724E-1,6.901526E-1,-7.494175E-2,7.3797725E-2,7.5093076E-2,-7.694488E-2,-7.491227E-2],"split_indices":[49,50,49,45,0,0,0,0,0],"split_type":[0,0,0,0,0,0,0,0,0],"sum_hessian":[1.3317781E5,6.620386E4,6.6973945E4,8.7999795E3,5.7403883E4,1.5016338E4,5.1957605E4,6.4762344E3,2.3237458E3],"tree_param":{"num_deleted":"0","num_feature":"51","num_nodes":"9","size_leaf_vector":"1"}},{"base_weights":[4.7054193E-3,-1.4663967E0,1.459468E0,-7.488671E-2,-7.3211096E-2,7.193062E-2,7.327882E-2],"categories":[],"categories_nodes":[],"categories_segments":[],"categories_sizes":[],"default_left":[0,0,0,0,0,0,0],"id":9,"left_children":[1,3,5,-1,-1,-1,-1],"loss_changes":[2.7743475E5,2.203125E0,6.1875E0,0E0,0E0,0E0,0E0],"parents":[2147483647,0,0,1,1,2,2],"right_children":[2,4,6,-1,-1,-1,-1],"split_conditions":[1.645836E-1,6.363384E-1,1.7547724E-1,-7.488671E-2,-7.3211096E-2,7.193062E-2,7.327882E-2],"split_indices":[49,45,49,0,0,0,0],"split_type":[0,0,0,0,0,0,0],"sum_hessian":[1.29634086E5,6.4455066E4,6.517902E4,4.1383447E3,6.0316723E4,1.4818996E4,5.0360023E4],"tree_param":{"num_deleted":"0","num_feature":"51","num_nodes":"7","size_leaf_vector":"1"}},{"base_weights":[6.4546656E-4,-1.4334253E0,1.4262638E0,-7.273199E-2,-7.150703E-2,7.018768E-2,7.163345E-2],"categories":[],"categories_nodes":[],"categories_segments":[],"categories_sizes":[],"default_left":[0,0,0,0,0,0,0],"id":10,"left_children":[1,3,5,-1,-1,-1,-1],"loss_changes":[2.5728411E5,2.2890625E0,7.09375E0,0E0,0E0,0E0,0E0],"parents":[2147483647,0,0,1,1,2,2],"right_children":[2,4,6,-1,-1,-1,-1],"split_conditions":[1.645836E-1,3.006478E-2,1.7547724E-1,-7.273199E-2,-7.150703E-2,7.018768E-2,7.163345E-2],"split_indices":[49,50,49,0,0,0,0],"split_type":[0,0,0,0,0,0,0],"sum_hessian":[1.25843914E5,6.2735973E4,6.310794E4,8.352224E3,5.4383746E4,1.4028407E4,4.907953E4],"tree_param":{"num_deleted":"0","num_feature":"51","num_nodes":"7","size_leaf_vector":"1"}},{"base_weights":[6.3827075E-3,-1.4034528E0,1.3962799E0,-7.113902E-2,-7.00229E-2,6.869141E-2,7.013776E-2],"categories":[],"categories_nodes":[],"categories_segments":[],"categories_sizes":[],"default_left":[0,0,0,0,0,0,0],"id":11,"left_children":[1,3,5,-1,-1,-1,-1],"loss_changes":[2.4049231E5,1.53125E0,7.0625E0,0E0,0E0,0E0,0E0],"parents":[2147483647,0,0,1,1,2,2],"right_children":[2,4,6,-1,-1,-1,-1],"split_conditions":[1.645836E-1,3.006478E-2,1.7547724E-1,-7.113902E-2,-7.00229E-2,6.869141E-2,7.013776E-2],"split_indices":[49,50,49,0,0,0,0],"split_type":[0,0,0,0,0,0,0],"sum_hessian":[1.2272781E5,6.09269E4,6.1800914E4,8.110383E3,5.2816516E4,1.388181E4,4.79191E4],"tree_param":{"num_deleted":"0","num_feature":"51","num_nodes":"7","size_leaf_vector":"1"}},{"base_weights":[2.7763813E-3,-1.376131E0,1.3687208E0,-6.969356E-2,-6.866853E-2,6.727361E-2,6.8774E-2],"categories":[],"categories_nodes":[],"categories_segments":[],"categories_sizes":[],"default_left":[0,0,0,0,0,0,0],"id":12,"left_children":[1,3,5,-1,-1,-1,-1],"loss_changes":[2.2355323E5,9.765625E-1,7.5078125E0,0E0,0E0,0E0,0E0],"parents":[2147483647,0,0,1,1,2,2],"right_children":[2,4,6,-1,-1,-1,-1],"split_conditions":[1.645836E-1,3.006478E-2,1.7547724E-1,-6.969356E-2,-6.866853E-2,6.727361E-2,6.8774E-2],"split_indices":[49,50,49,0,0,0,0],"split_type":[0,0,0,0,0,0,0],"sum_hessian":[1.1868764E5,5.9063555E4,5.9624086E4,7.8854756E3,5.117808E4,1.347515E4,4.6148938E4],"tree_param":{"num_deleted":"0","num_feature":"51","num_nodes":"7","size_leaf_vector":"1"}},{"base_weights":[9.735336E-3,-1.3511165E0,1.3437837E0,-6.836493E-2,-6.742983E-2,6.6036634E-2,6.7525975E-2],"categories":[],"categories_nodes":[],"categories_segments":[],"categories_sizes":[],"default_left":[0,0,0,0,0,0,0],"id":13,"left_children":[1,3,5,-1,-1,-1,-1],"loss_changes":[2.1002822E5,4.84375E-1,7.28125E0,0E0,0E0,0E0,0E0],"parents":[2147483647,0,0,1,1,2,2],"right_children":[2,4,6,-1,-1,-1,-1],"split_conditions":[1.645836E-1,3.006478E-2,1.7547724E-1,-6.836493E-2,-6.742983E-2,6.6036634E-2,6.7525975E-2],"split_indices":[49,50,49,0,0,0,0],"split_type":[0,0,0,0,0,0,0],"sum_hessian":[1.1568784E5,5.7268598E4,5.8419246E4,7.6434155E3,4.9625184E4,1.3255125E4,4.516412E4],"tree_param":{"num_deleted":"0","num_feature":"51","num_nodes":"7","size_leaf_vector":"1"}},{"base_weights":[2.1888197E-3,-1.328185E0,1.3202838E0,-6.715382E-2,-6.629323E-2,6.474934E-2,6.638139E-2],"categories":[],"categories_nodes":[],"categories_segments":[],"categories_sizes":[],"default_left":[0,0,0,0,0,0,0],"id":14,"left_children":[1,3,5,-1,-1,-1,-1],"loss_changes":[1.9479331E5,1.25E-1,8.65625E0,0E0,0E0,0E0,0E0],"parents":[2147483647,0,0,1,1,2,2],"right_children":[2,4,6,-1,-1,-1,-1],"split_conditions":[1.645836E-1,3.006478E-2,1.7547724E-1,-6.715382E-2,-6.629323E-2,6.474934E-2,6.638139E-2],"split_indices":[49,50,49,0,0,0,0],"split_type":[0,0,0,0,0,0,0],"sum_hessian":[1.1108256E5,5.5283777E4,5.579879E4,7.3750522E3,4.7908727E4,1.25941455E4,4.320464E4],"tree_param":{"num_deleted":"0","num_feature":"51","num_nodes":"7","size_leaf_vector":"1"}},{"base_weights":[3.4378555E-3,-6.5354876E-2,1.2989539E0,6.363833E-2,6.533148E-2],"categories":[],"categories_nodes":[],"categories_segments":[],"categories_sizes":[],"default_left":[0,0,0,0,0],"id":15,"left_children":[1,-1,3,-1,-1],"loss_changes":[1.8257661E5,0E0,9.203125E0,0E0,0E0],"parents":[2147483647,0,0,2,2],"right_children":[2,-1,4,-1,-1],"split_conditions":[1.645836E-1,-6.5354876E-2,1.7547724E-1,6.363833E-2,6.533148E-2],"split_indices":[49,0,49,0,0],"split_type":[0,0,0,0,0],"sum_hessian":[1.0753394E5,5.3457094E4,5.4076848E4,1.229557E4,4.1781277E4],"tree_param":{"num_deleted":"0","num_feature":"51","num_nodes":"5","size_leaf_vector":"1"}},{"base_weights":[-7.705769E-4,-6.438425E-2,1.2791072E0,6.2533304E-2,6.4360365E-2],"categories":[],"categories_nodes":[],"categories_segments":[],"categories_sizes":[],"default_left":[0,0,0,0,0],"id":16,"left_children":[1,-1,3,-1,-1],"loss_changes":[1.7049697E5,0E0,1.034375E1,0E0,0E0],"parents":[2147483647,0,0,2,2],"right_children":[2,-1,4,-1,-1],"split_conditions":[1.645836E-1,-6.438425E-2,1.7547724E-1,6.2533304E-2,6.4360365E-2],"split_indices":[49,0,49,0,0],"split_type":[0,0,0,0,0],"sum_hessian":[1.0351186E5,5.1614043E4,5.1897816E4,1.15385625E4,4.0359254E4],"tree_param":{"num_deleted":"0","num_feature":"51","num_nodes":"5","size_leaf_vector":"1"}},{"base_weights":[4.3065255E-3,-6.3486755E-2,1.2607393E0,6.1550707E-2,6.3465E-2],"categories":[],"categories_nodes":[],"categories_segments":[],"categories_sizes":[],"default_left":[0,0,0,0,0],"id":17,"left_children":[1,-1,3,-1,-1],"loss_changes":[1.6038811E5,0E0,1.12734375E1,0E0,0E0],"parents":[2147483647,0,0,2,2],"right_children":[2,-1,4,-1,-1],"split_conditions":[1.645836E-1,-6.3486755E-2,1.7547724E-1,6.1550707E-2,6.3465E-2],"split_indices":[49,0,49,0,0],"split_type":[0,0,0,0,0],"sum_hessian":[1.0019375E5,4.9748258E4,5.044549E4,1.1311941E4,3.9133547E4],"tree_param":{"num_deleted":"0","num_feature":"51","num_nodes":"5","size_leaf_vector":"1"}},{"base_weights":[1.7709689E-3,-6.265785E-2,1.2438018E0,6.0658067E-2,6.263611E-2],"categories":[],"categories_nodes":[],"categories_segments":[],"categories_sizes":[],"default_left":[0,0,0,0,0],"id":18,"left_children":[1,-1,3,-1,-1],"loss_changes":[1.5020375E5,0E0,1.17109375E1,0E0,0E0],"parents":[2147483647,0,0,2,2],"right_children":[2,-1,4,-1,-1],"split_conditions":[1.645836E-1,-6.265785E-2,1.7547724E-1,6.0658067E-2,6.263611E-2],"split_indices":[49,0,49,0,0],"split_type":[0,0,0,0,0],"sum_hessian":[9.636527E4,4.7933766E4,4.8431508E4,1.09513545E4,3.7480156E4],"tree_param":{"num_deleted":"0","num_feature":"51","num_nodes":"5","size_leaf_vector":"1"}},{"base_weights":[-8.820566E-4,9.3289554E-1,-1.197542E0,1.0013592E0,-1.1418594E0,-6.4088756E-1,-1.2288522E0,5.887356E-1,1.1303922E0,-7.7709687E-1,-6.1692078E-2,-1.1308689E0,-1.0839558E-1,-1.0371034E0,-1.2318313E0,8.61297E-1,-6.904079E-1,1.144112E0,5.9575576E-1,-6.1450984E-2,-5.1793493E-3,-1.3159378E-1,-1.1622086E0,5.376731E-1,-7.253063E-1,-6.1820783E-2,-4.7934517E-1,-1.2337909E0,-1.0321499E0,9.6953195E-1,-6.482409E-1,5.1770322E-2,-1.0593778E0,1.1568836E0,7.205815E-1,9.908088E-1,-4.9410814E-1,-6.057747E-2,6.810355E-1,8.926134E-1,-5.839615E-2,-7.118669E-1,-6.176069E-2,8.0897844E-1,-6.2317032E-2,-6.203887E-2,-3.5052642E-1,-6.1057515E-2,2.2657767E-1,-1.1640911E0,-6.179693E-2,4.3299932E-2,-6.172057E-2,5.6834485E-2,3.2189574E-2,4.302094E-2,-5.046025E-2,1.8231114E-2,-6.1469525E-2,-5.710081E-2,-2.0168487E-3,6.027295E-2,5.4192133E-2,-4.0490277E-2,4.371641E-2,5.1669348E-2,-5.725341E-2,1.6902803E-2,-6.195839E-2,-5.7465196E-2,5.314329E-2,5.689418E-2,-4.068421E-2,-6.1196607E-2,1.4200523E-2,5.1067617E-2,-2.9304042E-2,1.120133E-2,-4.889289E-2,-5.9300244E-2,4.0817134E-2,-6.173971E-2,-1.4600231E-2,-5.951148E-2,5.0326813E-2],"categories":[],"categories_nodes":[],"categories_segments":[],"categories_sizes":[],"default_left":[0,0,0,0,0,0,0,0,0,0,0,0,0,0,0,0,0,0,0,0,0,0,0,0,0,0,0,0,0,0,0,0,0,0,0,0,0,0,0,0,0,0,0,0,0,0,0,0,0,0,0,0,0,0,0,0,0,0,0,0,0,0,0,0,0,0,0,0,0,0,0,0,0,0,0,0,0,0,0,0,0,0,0,0,0],"id":19,"left_children":[1,3,5,7,9,11,13,15,17,19,-1,21,23,25,27,29,31,33,35,-1,37,39,41,43,45,-1,47,49,51,53,55,57,59,61,63,65,67,-1,69,71,-1,73,-1,75,-1,-1,77,-1,79,81,-1,83,-1,-1,-1,-1,-1,-1,-1,-1,-1,-1,-1,-1,-1,-1,-1,-1,-1,-1,-1,-1,-1,-1,-1,-1,-1,-1,-1,-1,-1,-1,-1,-1,-1],"loss_changes":[1.034468E5,7.387535E3,7.064219E2,2.6795195E3,5.479004E1,5.641966E2,2.0664062E1,4.182224E3,2.8059375E2,1.1766707E2,0E0,3.5119263E1,4.1393613E2,6.5445435E1,1.3527344E1,1.6161138E3,5.771278E2,2.0139453E2,4.1447446E2,0E0,1.0477181E2,3.8591957E1,3.502002E1,2.4659074E2,1.0218558E2,0E0,8.3027336E1,4.1640625E0,8.133258E1,5.0165137E2,3.614387E2,2.8130466E2,1.18491455E2,1.2744922E2,2.588308E2,6.539203E1,1.5943513E2,0E0,5.760567E1,8.609295E0,0E0,7.922708E1,0E0,1.3126117E2,0E0,0E0,1.1158085E2,0E0,6.912681E1,6.9723145E1,0E0,7.2627075E1,0E0,0E0,0E0,0E0,0E0,0E0,0E0,0E0,0E0,0E0,0E0,0E0,0E0,0E0,0E0,0E0,0E0,0E0,0E0,0E0,0E0,0E0,0E0,0E0,0E0,0E0,0E0,0E0,0E0,0E0,0E0,0E0,0E0],"parents":[2147483647,0,0,1,1,2,2,3,3,4,4,5,5,6,6,7,7,8,8,9,9,11,11,12,12,13,13,14,14,15,15,16,16,17,17,18,18,20,20,21,21,22,22,23,23,24,24,26,26,27,27,28,28,29,29,30,30,31,31,32,32,33,33,34,34,35,35,36,36,38,38,39,39,41,41,43,43,46,46,48,48,49,49,51,51],"right_children":[2,4,6,8,10,12,14,16,18,20,-1,22,24,26,28,30,32,34,36,-1,38,40,42,44,46,-1,48,50,52,54,56,58,60,62,64,66,68,-1,70,72,-1,74,-1,76,-1,-1,78,-1,80,82,-1,84,-1,-1,-1,-1,-1,-1,-1,-1,-1,-1,-1,-1,-1,-1,-1,-1,-1,-1,-1,-1,-1,-1,-1,-1,-1,-1,-1,-1,-1,-1,-1,-1,-1],"split_conditions":[3.006478E-2,6.901526E-1,3.6204338E-2,1E0,1.2788131E-2,1E0,3.813301E-2,7.3205084E-1,1E0,7.5E-1,-6.1692078E-2,2.7390523E-3,3.3333334E-1,1E0,1E0,1E0,4.079282E-3,2.5539244E-2,-6.137516E-3,-6.1450984E-2,8.345653E-1,9.9031135E-2,3.0794047E-2,1.7350158E-1,5.2747256E-1,-6.1820783E-2,1E0,8.9748666E-2,1.5896821E-1,3.3333334E-1,-6.137516E-3,1E0,1E0,-1.1947993E-3,2.0967741E-1,1E0,3.3333334E-1,-6.057747E-2,1E0,3.3333334E-1,-5.839615E-2,9.829629E-1,-6.176069E-2,7.3205084E-1,-6.2317032E-2,-6.203887E-2,1.6677181E-1,-6.1057515E-2,1E0,5.483871E-1,-6.179693E-2,1.514345E-1,-6.172057E-2,5.6834485E-2,3.2189574E-2,4.302094E-2,-5.046025E-2,1.8231114E-2,-6.1469525E-2,-5.710081E-2,-2.0168487E-3,6.027295E-2,5.4192133E-2,-4.0490277E-2,4.371641E-2,5.1669348E-2,-5.725341E-2,1.6902803E-2,-6.195839E-2,-5.7465196E-2,5.314329E-2,5.689418E-2,-4.068421E-2,-6.1196607E-2,1.4200523E-2,5.1067617E-2,-2.9304042E-2,1.120133E-2,-4.889289E-2,-5.9300244E-2,4.0817134E-2,-6.173971E-2,-1.4600231E-2,-5.951148E-2,5.0326813E-2],"split_indices":[50,45,50,8,50,23,50,17,17,1,0,11,7,3,47,24,50,50,50,0,9,15,50,44,1,0,38,2,2,7,50,17,13,50,0,27,7,0,23,7,0,13,0,17,0,0,44,0,23,0,0,2,0,0,0,0,0,0,0,0,0,0,0,0,0,0,0,0,0,0,0,0,0,0,0,0,0,0,0,0,0,0,0,0,0],"split_type":[0,0,0,0,0,0,0,0,0,0,0,0,0,0,0,0,0,0,0,0,0,0,0,0,0,0,0,0,0,0,0,0,0,0,0,0,0,0,0,0,0,0,0,0,0,0,0,0,0,0,0,0,0,0,0,0,0,0,0,0,0,0,0,0,0,0,0,0,0,0,0,0,0,0,0,0,0,0,0,0,0,0,0,0,0],"sum_hessian":[9.2574945E4,5.1999176E4,4.0575773E4,5.0338598E4,1.6605795E3,2.1618792E3,3.8413895E4,1.1992939E4,3.8345656E4,3.363209E2,1.3242587E3,1.1252958E3,1.0365834E3,5.930393E2,3.7820855E4,9.886614E3,2.1063252E3,3.738514E4,9.605166E2,2.1175546E2,1.24565414E2,3.4376766E1,1.090919E3,5.063888E2,5.301946E2,4.3601486E2,1.5702448E2,3.7448195E4,3.726594E2,9.225497E3,6.611171E2,6.9971564E2,1.4066095E3,3.628911E4,1.0960317E3,7.0504376E2,2.5547282E2,4.4887447E1,7.967796E1,1.7359247E1,1.7017517E1,1.5367953E2,9.3723944E2,4.4001907E2,6.636972E1,2.2222975E2,3.079648E2,7.62104E1,8.0814064E1,1.1356293E3,3.6312566E4,5.9116344E1,3.1354306E2,6.095187E3,3.1303103E3,1.27373245E2,5.337439E2,5.629596E2,1.3675603E2,1.3009862E3,1.0562334E2,2.1785379E4,1.450373E4,9.966857E1,9.963631E2,6.917697E2,1.3274065E1,1.20940025E2,1.3453279E2,1.3405835E1,6.627213E1,1.54688225E1,1.8904245E0,1.01341995E2,5.233754E1,3.821163E2,5.7902782E1,1.610798E2,1.4688503E2,2.3504944E1,5.7309124E1,1.0500797E3,8.554958E1,2.581796E1,3.329838E1],"tree_param":{"num_deleted":"0","num_feature":"51","num_nodes":"85","size_leaf_vector":"1"}},{"base_weights":[2.0676984E-4,-1.2254086E0,1.2153212E0,-6.230999E-2,-6.1103243E-2,5.921371E-2,6.1221298E-2],"categories":[],"categories_nodes":[],"categories_segments":[],"categories_sizes":[],"default_left":[0,0,0,0,0,0,0],"id":20,"left_children":[1,3,5,-1,-1,-1,-1],"loss_changes":[1.3345134E5,1.578125E0,1.12734375E1,0E0,0E0,0E0,0E0],"parents":[2147483647,0,0,1,1,2,2],"right_children":[2,4,6,-1,-1,-1,-1],"split_conditions":[1.645836E-1,3.006478E-2,1.7547724E-1,-6.230999E-2,-6.1103243E-2,5.921371E-2,6.1221298E-2],"split_indices":[49,50,49,0,0,0,0],"split_type":[0,0,0,0,0,0,0],"sum_hessian":[8.9607E4,4.461073E4,4.4996266E4,6.1290156E3,3.8481715E4,1.0233011E4,3.4763254E4],"tree_param":{"num_deleted":"0","num_feature":"51","num_nodes":"7","size_leaf_vector":"1"}},{"base_weights":[4.289216E-3,-1.2119973E0,1.2015822E0,-6.1566144E-2,-6.044504E-2,1.169793E0,6.0557444E-2,1.151704E0,5.8919515E-2,1.1549793E0,-1.538894E-1,5.7942517E-2,1.0273257E0,5.6973197E-2,-1.7786098E-1],"categories":[],"categories_nodes":[],"categories_segments":[],"categories_sizes":[],"default_left":[0,0,0,0,0,0,0,0,0,0,0,0,0,0,0],"id":21,"left_children":[1,3,5,-1,-1,7,-1,9,-1,11,-1,-1,13,-1,-1],"loss_changes":[1.2572468E5,1.078125E0,1.1816406E1,0E0,0E0,2.1289062E-1,0E0,4.9215332E1,0E0,4.3701172E-1,0E0,0E0,5.842443E1,0E0,0E0],"parents":[2147483647,0,0,1,1,2,2,5,5,7,7,9,9,12,12],"right_children":[2,4,6,-1,-1,8,-1,10,-1,12,-1,-1,14,-1,-1],"split_conditions":[1.645836E-1,3.006478E-2,1.7547724E-1,-6.1566144E-2,-6.044504E-2,3.791209E-1,6.0557444E-2,2.935415E-2,5.8919515E-2,6.6074896E-1,-1.538894E-1,5.7942517E-2,3.7096775E-1,5.6973197E-2,-1.7786098E-1],"split_indices":[49,50,49,0,0,1,0,50,0,45,0,0,0,0,0],"split_type":[0,0,0,0,0,0,0,0,0,0,0,0,0,0,0],"sum_hessian":[8.633247E4,4.2826535E4,4.3505934E4,5.8593354E3,3.69672E4,1.0092587E4,3.3413348E4,3.2949126E3,6.7976743E3,3.293089E3,1.8233664E0,3.1883298E3,1.04759346E2,1.0299162E2,1.7677221E0],"tree_param":{"num_deleted":"0","num_feature":"51","num_nodes":"15","size_leaf_vector":"1"}},{"base_weights":[-5.9592663E-3,-1.1995475E0,1.1881803E0,-6.0877986E-2,-5.9832375E-2,5.7602596E-2,5.99368E-2],"categories":[],"categories_nodes":[],"categories_segments":[],"categories_sizes":[],"default_left":[0,0,0,0,0,0,0],"id":22,"left_children":[1,3,5,-1,-1,-1,-1],"loss_changes":[1.1726694E5,6.953125E-1,1.4300781E1,0E0,0E0,0E0,0E0],"parents":[2147483647,0,0,1,1,2,2],"right_children":[2,4,6,-1,-1,-1,-1],"split_conditions":[1.645836E-1,3.006478E-2,1.7547724E-1,-6.0877986E-2,-5.9832375E-2,5.7602596E-2,5.99368E-2],"split_indices":[49,50,49,0,0,0,0],"split_type":[0,0,0,0,0,0,0],"sum_hessian":[8.227264E4,4.1145816E4,4.112682E4,5.6477876E3,3.5498027E4,9.323979E3,3.1802844E4],"tree_param":{"num_deleted":"0","num_feature":"51","num_nodes":"7","size_leaf_vector":"1"}},{"base_weights":[-3.8488673E-3,-1.1879448E0,1.1762156E0,-6.023812E-2,-5.926114E-2,5.6923162E-2,5.9358563E-2],"categories":[],"categories_nodes":[],"categories_segments":[],"categories_sizes":[],"default_left":[0,0,0,0,0,0,0],"id":23,"left_children":[1,3,5,-1,-1,-1,-1],"loss_changes":[1.1071971E5,3.7890625E-1,1.5066406E1,0E0,0E0,0E0,0E0],"parents":[2147483647,0,0,1,1,2,2],"right_children":[2,4,6,-1,-1,-1,-1],"split_conditions":[1.645836E-1,3.006478E-2,1.7547724E-1,-6.023812E-2,-5.926114E-2,5.6923162E-2,5.9358563E-2],"split_indices":[49,50,49,0,0,0,0],"split_type":[0,0,0,0,0,0,0],"sum_hessian":[7.923577E4,3.955033E4,3.968545E4,5.4481895E3,3.410214E4,8.94976E3,3.0735688E4],"tree_param":{"num_deleted":"0","num_feature":"51","num_nodes":"7","size_leaf_vector":"1"}},{"base_weights":[4.661948E-3,-1.1771096E0,1.1651825E0,-5.964014E-2,-5.87282E-2,1.1269212E0,5.8818776E-2,1.0978628E0,1.1330729E0,1.1053568E0,-1.680599E-1,5.6676038E-2,4.192355E-2,3.7764527E-2,5.5396058E-2],"categories":[],"categories_nodes":[],"categories_segments":[],"categories_sizes":[],"default_left":[0,0,0,0,0,0,0,0,0,0,0,0,0,0,0],"id":24,"left_children":[1,3,5,-1,-1,7,-1,9,11,13,-1,-1,-1,-1,-1],"loss_changes":[1.050969E5,1.171875E-1,1.5234375E1,0E0,0E0,3.232422E-1,0E0,5.6017456E1,9.765625E-4,5.665283E-1,0E0,0E0,0E0,0E0,0E0],"parents":[2147483647,0,0,1,1,2,2,5,5,7,7,8,8,9,9],"right_children":[2,4,6,-1,-1,8,-1,10,12,14,-1,-1,-1,-1,-1],"split_conditions":[1.645836E-1,3.006478E-2,1.7547724E-1,-5.964014E-2,-5.87282E-2,2.0604396E-1,5.8818776E-2,2.0092852E-2,6.966437E-1,5.9720054E-2,-1.680599E-1,5.6676038E-2,4.192355E-2,3.7764527E-2,5.5396058E-2],"split_indices":[49,50,49,0,0,1,0,50,2,2,0,0,0,0,0],"split_type":[0,0,0,0,0,0,0,0,0,0,0,0,0,0,0],"sum_hessian":[7.6628836E4,3.7966797E4,3.8662043E4,5.2337764E3,3.273302E4,8.77345E3,2.9888592E4,1.5641946E3,7.209256E3,1.562321E3,1.8735275E0,7.195468E3,1.3787966E1,1.3510147E1,1.5488109E3],"tree_param":{"num_deleted":"0","num_feature":"51","num_nodes":"15","size_leaf_vector":"1"}},{"base_weights":[-2.893061E-3,8.6981237E-1,-1.1272715E0,9.3336403E-1,-1.0740947E0,-6.1108136E-1,-1.1563965E0,5.421814E-1,1.0560746E0,-7.32446E-1,-5.8081992E-2,-9.234889E-3,-9.938064E-1,-1.1592321E0,-8.736028E-1,9.145912E-1,-1.6918749E-2,1.118242E0,9.531633E-1,-5.7797324E-2,-1.4991243E-2,3.5245872E-1,-5.8511566E-2,-5.8377635E-2,-6.240533E-1,-9.675717E-1,-1.1622545E0,-2.1036126E-1,-5.8085132E-2,9.6774906E-1,-1.1243349E-1,-9.483676E-1,5.38872E-1,1.131217E0,1.042182E0,1.0404416E0,4.935202E-1,-5.6687634E-2,6.193592E-1,-5.626355E-1,7.424509E-1,3.66115E-1,-9.297445E-1,-1.7778523E-1,-1.0901343E0,-1.091677E0,-5.8220346E-2,-5.6898583E-2,5.8445746E-1,5.34057E-2,3.9507743E-2,-4.4905763E-2,2.4223777E-2,-2.530318E-2,-5.7219494E-2,4.6174597E-2,-1.1843645E-2,5.700324E-2,5.4769266E-2,5.3147446E-2,1.4919174E-2,5.3051706E-2,-6.9950907E-3,-7.534481E-3,4.265782E-2,-5.3181052E-2,4.8450217E-2,-5.7721615E-2,2.5003413E-2,4.092007E-2,-5.557723E-2,-5.5516113E-2,4.470965E-2,-5.8268525E-2,-2.1321625E-2,2.9528428E-2,-5.6339867E-2,-5.8126386E-2,-3.456083E-2,-5.81513E-2,-1.1857767E-2,-5.258457E-2,4.7222342E-2],"categories":[],"categories_nodes":[],"categories_segments":[],"categories_sizes":[],"default_left":[0,0,0,0,0,0,0,0,0,0,0,0,0,0,0,0,0,0,0,0,0,0,0,0,0,0,0,0,0,0,0,0,0,0,0,0,0,0,0,0,0,0,0,0,0,0,0,0,0,0,0,0,0,0,0,0,0,0,0,0,0,0,0,0,0,0,0,0,0,0,0,0,0,0,0,0,0,0,0,0,0,0,0],"id":25,"left_children":[1,3,5,7,9,11,13,15,17,19,-1,21,23,25,27,29,31,33,35,-1,37,39,-1,-1,41,43,45,47,-1,49,51,53,55,57,59,61,63,-1,65,67,69,71,73,75,77,79,-1,-1,81,-1,-1,-1,-1,-1,-1,-1,-1,-1,-1,-1,-1,-1,-1,-1,-1,-1,-1,-1,-1,-1,-1,-1,-1,-1,-1,-1,-1,-1,-1,-1,-1,-1,-1],"loss_changes":[7.168106E4,5.081926E3,4.7921094E2,1.9112031E3,3.8106323E1,3.9320154E2,2.321875E1,1.9805796E3,1.9289062E2,8.152902E1,0E0,2.794896E2,6.630847E1,1.6203125E1,5.785211E1,3.118042E2,1.9697312E3,1.7464844E1,4.577578E2,0E0,7.211939E1,1.8153165E2,0E0,0E0,1.01961426E2,4.5334717E1,3.1992188E0,6.945066E1,0E0,9.5913574E1,1.326224E2,1.2270044E2,7.112177E2,3.8652344E0,4.240796E1,2.3347656E2,4.229149E2,0E0,3.9200645E1,9.63094E1,5.1077103E1,6.330121E1,2.9959656E1,4.7609657E1,1.0949127E1,5.3830322E1,0E0,0E0,3.097617E1,0E0,0E0,0E0,0E0,0E0,0E0,0E0,0E0,0E0,0E0,0E0,0E0,0E0,0E0,0E0,0E0,0E0,0E0,0E0,0E0,0E0,0E0,0E0,0E0,0E0,0E0,0E0,0E0,0E0,0E0,0E0,0E0,0E0,0E0],"parents":[2147483647,0,0,1,1,2,2,3,3,4,4,5,5,6,6,7,7,8,8,9,9,11,11,12,12,13,13,14,14,15,15,16,16,17,17,18,18,20,20,21,21,24,24,25,25,26,26,27,27,29,29,30,30,31,31,32,32,33,33,34,34,35,35,36,36,38,38,39,39,40,40,41,41,42,42,43,43,44,44,45,45,48,48],"right_children":[2,4,6,8,10,12,14,16,18,20,-1,22,24,26,28,30,32,34,36,-1,38,40,-1,-1,42,44,46,48,-1,50,52,54,56,58,60,62,64,-1,66,68,70,72,74,76,78,80,-1,-1,82,-1,-1,-1,-1,-1,-1,-1,-1,-1,-1,-1,-1,-1,-1,-1,-1,-1,-1,-1,-1,-1,-1,-1,-1,-1,-1,-1,-1,-1,-1,-1,-1,-1,-1],"split_conditions":[3.006478E-2,6.901526E-1,3.6204338E-2,1E0,1.2788131E-2,3.3333334E-1,1E0,5.5399723E-3,6.8462704E-4,7.5E-1,-5.8081992E-2,1.7350158E-1,1E0,3.813301E-2,1.4644662E-1,1E0,1E0,1E0,6.666667E-1,-5.7797324E-2,8.345653E-1,1E0,-5.8511566E-2,-5.8377635E-2,6.69873E-2,2.4471741E-2,8.9748666E-2,1E0,-5.8085132E-2,3.3333334E-1,1E0,3.3333334E-1,3.3333334E-1,1E0,1E0,1E0,1E0,-5.6687634E-2,1E0,1E0,1E0,1E0,8.7157243E-1,3.3333334E-1,9.829629E-1,5.483871E-1,-5.8220346E-2,-5.6898583E-2,1E0,5.34057E-2,3.9507743E-2,-4.4905763E-2,2.4223777E-2,-2.530318E-2,-5.7219494E-2,4.6174597E-2,-1.1843645E-2,5.700324E-2,5.4769266E-2,5.3147446E-2,1.4919174E-2,5.3051706E-2,-6.9950907E-3,-7.534481E-3,4.265782E-2,-5.3181052E-2,4.8450217E-2,-5.7721615E-2,2.5003413E-2,4.092007E-2,-5.557723E-2,-5.5516113E-2,4.470965E-2,-5.8268525E-2,-2.1321625E-2,2.9528428E-2,-5.6339867E-2,-5.8126386E-2,-3.456083E-2,-5.81513E-2,-1.1857767E-2,-5.258457E-2,4.7222342E-2],"split_indices":[50,45,50,8,50,7,47,50,50,1,0,43,32,50,13,24,23,33,7,0,9,23,0,0,14,11,2,21,0,7,19,7,7,24,22,33,23,0,23,8,30,23,9,7,13,0,0,0,23,0,0,0,0,0,0,0,0,0,0,0,0,0,0,0,0,0,0,0,0,0,0,0,0,0,0,0,0,0,0,0,0,0,0],"split_type":[0,0,0,0,0,0,0,0,0,0,0,0,0,0,0,0,0,0,0,0,0,0,0,0,0,0,0,0,0,0,0,0,0,0,0,0,0,0,0,0,0,0,0,0,0,0,0,0,0,0,0,0,0,0,0,0,0,0,0,0,0,0,0,0,0,0,0,0,0,0,0,0,0,0,0,0,0,0,0,0,0,0,0],"sum_hessian":[7.304867E4,4.112727E4,3.1921402E4,3.9825777E4,1.3014938E3,1.7060757E3,3.0215326E4,9.51114E3,3.0314637E4,2.6738373E2,1.0341101E3,6.63588E2,1.0424877E3,2.9912283E4,3.030431E2,5.7082847E3,3.8028547E3,1.8892225E4,1.1422411E4,1.6775175E2,9.963198E1,5.06493E2,1.57095E2,7.0775653E2,3.3473117E2,4.6934433E2,2.944294E4,9.229611E1,2.1074698E2,5.4274233E3,2.8086093E2,1.4208867E3,2.381968E3,1.6127235E4,2.7649902E3,9.598548E3,1.8238629E3,3.576622E1,6.3865757E1,1.5122038E2,3.552726E2,7.8915924E1,2.5581525E2,6.3379707E1,4.0596463E2,8.8643335E2,2.8556506E4,4.2391018E1,4.9905094E1,3.4644978E3,1.9629257E3,1.2103886E2,1.5982207E2,4.3743707E2,9.8344965E2,1.5923025E3,7.896655E2,1.2908863E4,3.2183723E3,2.6894705E3,7.55197E1,9.434062E3,1.6448662E2,6.5362213E2,1.1702407E3,1.0634708E1,5.3231052E1,9.7075066E1,5.4145325E1,3.418279E2,1.3444697E1,2.0499477E1,5.8416447E1,1.733472E2,8.246805E1,3.5232185E1,2.8147522E1,3.4198828E2,6.3976368E1,8.177902E2,6.864312E1,8.653508E0,4.1251587E1],"tree_param":{"num_deleted":"0","num_feature":"51","num_nodes":"83","size_leaf_vector":"1"}},{"base_weights":[7.929857E-4,-1.1589181E0,1.1455054E0,-5.9011698E-2,-5.7768315E-2,5.522126E-2,5.7893194E-2],"categories":[],"categories_nodes":[],"categories_segments":[],"categories_sizes":[],"default_left":[0,0,0,0,0,0,0],"id":26,"left_children":[1,3,5,-1,-1,-1,-1],"loss_changes":[9.3653E4,1.296875E0,1.6742188E1,0E0,0E0,0E0,0E0],"parents":[2147483647,0,0,1,1,2,2],"right_children":[2,4,6,-1,-1,-1,-1],"split_conditions":[1.645836E-1,3.006478E-2,1.7547724E-1,-5.9011698E-2,-5.7768315E-2,5.522126E-2,5.7893194E-2],"split_indices":[49,50,49,0,0,0,0],"split_type":[0,0,0,0,0,0,0],"sum_hessian":[7.05445E4,3.504267E4,3.5501832E4,4.9578022E3,3.008487E4,8.231124E3,2.7270707E4],"tree_param":{"num_deleted":"0","num_feature":"51","num_nodes":"7","size_leaf_vector":"1"}},{"base_weights":[1.4711479E-3,-1.1499989E0,1.1361704E0,-5.849994E-2,-5.7332374E-2,1.0930234E0,5.7447314E-2,1.075244E0,5.51006E-2,1.0799441E0,-1.5596174E-1,1.0834113E0,8.0862546E-1,4.9009617E-2,5.4522574E-2,-1.833274E-1,5.488332E-2],"categories":[],"categories_nodes":[],"categories_segments":[],"categories_sizes":[],"default_left":[0,0,0,0,0,0,0,0,0,0,0,0,0,0,0,0,0],"id":27,"left_children":[1,3,5,-1,-1,7,-1,9,-1,11,-1,13,15,-1,-1,-1,-1],"loss_changes":[8.8457266E4,9.140625E-1,1.7539062E1,0E0,0E0,6.347656E-2,0E0,5.5888916E1,0E0,1.6279297E0,0E0,8.388672E-1,5.2567253E1,0E0,0E0,0E0,0E0],"parents":[2147483647,0,0,1,1,2,2,5,5,7,7,9,9,11,11,12,12],"right_children":[2,4,6,-1,-1,8,-1,10,-1,12,-1,14,16,-1,-1,-1,-1],"split_conditions":[1.645836E-1,3.006478E-2,1.7547724E-1,-5.849994E-2,-5.7332374E-2,3.791209E-1,5.7447314E-2,2.859597E-2,5.51006E-2,6.6185856E-1,-1.5596174E-1,2.2432527E-3,5E-1,4.9009617E-2,5.4522574E-2,-1.833274E-1,5.488332E-2],"split_indices":[49,50,49,0,0,1,0,50,0,45,0,43,11,0,0,0,0],"split_type":[0,0,0,0,0,0,0,0,0,0,0,0,0,0,0,0,0],"sum_hessian":[6.769978E4,3.360157E4,3.4098215E4,4.772726E3,2.8828842E4,7.809727E3,2.6288486E4,2.6629775E3,5.1467495E3,2.6607385E3,2.2390225E0,2.6242107E3,3.6527866E1,1.7651163E2,2.447699E3,1.5071828E0,3.5020687E1],"tree_param":{"num_deleted":"0","num_feature":"51","num_nodes":"17","size_leaf_vector":"1"}},{"base_weights":[-3.2676766E-3,-1.1416148E0,1.1270673E0,-5.8019694E-2,-5.692364E-2,1.0819228E0,5.7031374E-2,8.685413E-1,5.4156035E-2,5.2922964E-2,3.0322766E-1,-2.0424739E-1,5.2611317E-2],"categories":[],"categories_nodes":[],"categories_segments":[],"categories_sizes":[],"default_left":[0,0,0,0,0,0,0,0,0,0,0,0,0],"id":28,"left_children":[1,3,5,-1,-1,7,-1,9,-1,-1,11,-1,-1],"loss_changes":[8.308077E4,5.703125E-1,1.8597656E1,0E0,0E0,9.7753906E-1,0E0,4.718281E0,0E0,0E0,4.7698257E1,0E0,0E0],"parents":[2147483647,0,0,1,1,2,2,5,5,7,7,10,10],"right_children":[2,4,6,-1,-1,8,-1,10,-1,-1,12,-1,-1],"split_conditions":[1.645836E-1,3.006478E-2,1.7547724E-1,-5.8019694E-2,-5.692364E-2,2.7390523E-3,5.7031374E-2,1.654347E-1,5.4156035E-2,5.2922964E-2,1E0,-2.0424739E-1,5.2611317E-2],"split_indices":[49,50,49,0,0,12,0,10,0,0,32,0,0],"split_type":[0,0,0,0,0,0,0,0,0,0,0,0,0],"sum_hessian":[6.4566195E4,3.2169082E4,3.2397113E4,4.5580254E3,2.7611057E4,7.5020435E3,2.489507E4,4.593633E1,7.456107E3,3.3731754E1,1.22045765E1,1.1300497E0,1.1074527E1],"tree_param":{"num_deleted":"0","num_feature":"51","num_nodes":"13","size_leaf_vector":"1"}},{"base_weights":[-3.4391256E-3,-1.1337545E0,1.1186231E0,-5.7565358E-2,-5.6540377E-2,1.0723017E0,5.664004E-2,1.0440516E0,1.078925E0,1.053589E0,-1.7192559E-1,1.0887859E0,1.0524971E0,1.0581776E0,5.2722895E-1,3.2079082E-2,1.0898243E0,1.0648829E0,9.647814E-1,5.0843623E-2,5.4042853E-2,5.3745992E-2,-1.4724228E-1,3.5682004E-2,5.453201E-2,4.7998928E-2,5.3895064E-2,5.0583433E-2,2.79099E-2],"categories":[],"categories_nodes":[],"categories_segments":[],"categories_sizes":[],"default_left":[0,0,0,0,0,0,0,0,0,0,0,0,0,0,0,0,0,0,0,0,0,0,0,0,0,0,0,0,0],"id":29,"left_children":[1,3,5,-1,-1,7,-1,9,11,13,-1,15,17,19,21,-1,23,25,27,-1,-1,-1,-1,-1,-1,-1,-1,-1,-1],"loss_changes":[7.843704E4,2.9296875E-1,1.9167969E1,0E0,0E0,2.3730469E-1,0E0,6.415198E1,3.8623047E-1,2.8564453E0,0E0,1.2749023E0,7.402344E-1,2.1264648E-1,3.0186733E1,0E0,5.2197266E-1,8.9904785E-1,3.475769E0,0E0,0E0,0E0,0E0,0E0,0E0,0E0,0E0,0E0,0E0],"parents":[2147483647,0,0,1,1,2,2,5,5,7,7,8,8,9,9,11,11,12,12,13,13,14,14,16,16,17,17,18,18],"right_children":[2,4,6,-1,-1,8,-1,10,12,14,-1,16,18,20,22,-1,24,26,28,-1,-1,-1,-1,-1,-1,-1,-1,-1,-1],"split_conditions":[1.645836E-1,3.006478E-2,1.7547724E-1,-5.7565358E-2,-5.6540377E-2,2.1428572E-1,5.664004E-2,6.6158116E-1,7.3205084E-1,2.0092852E-2,-1.7192559E-1,2.7390523E-3,9.330127E-1,1.6366158E-2,1.7741935E-1,3.2079082E-2,2.7390523E-3,1.2842758E-1,1E0,5.0843623E-2,5.4042853E-2,5.3745992E-2,-1.4724228E-1,3.5682004E-2,5.453201E-2,4.7998928E-2,5.3895064E-2,5.0583433E-2,2.79099E-2],"split_indices":[49,50,49,0,0,1,0,45,17,50,0,12,9,45,0,0,11,11,20,0,0,0,0,0,0,0,0,0,0],"split_type":[0,0,0,0,0,0,0,0,0,0,0,0,0,0,0,0,0,0,0,0,0,0,0,0,0,0,0,0,0],"sum_hessian":[6.1843008E4,3.0808197E4,3.103481E4,4.372843E3,2.6435354E4,7.2908394E3,2.3743973E4,1.4148242E3,5.876015E3,1.4125836E3,2.2405465E0,4.2500317E3,1.6259833E3,1.399374E3,1.3209575E1,1.1280324E1,4.2387515E3,1.4150355E3,2.1094771E2,5.122556E2,8.8711847E2,1.2006119E1,1.2034554E0,1.10674E1,4.227684E3,1.6446735E2,1.2505682E3,1.8780212E2,2.3145576E1],"tree_param":{"num_deleted":"0","num_feature":"51","num_nodes":"29","size_leaf_vector":"1"}},{"base_weights":[-1.031533E-3,-1.1263771E0,1.1103241E0,-5.7140347E-2,-5.6180645E-2,1.0601323E0,5.6275465E-2,1.0292103E0,5.334598E-2,1.0395529E0,-1.518021E-1,3.0629992E-2,1.042704E0,4.7958445E-2,5.2833464E-2],"categories":[],"categories_nodes":[],"categories_segments":[],"categories_sizes":[],"default_left":[0,0,0,0,0,0,0,0,0,0,0,0,0,0,0],"id":30,"left_children":[1,3,5,-1,-1,7,-1,9,-1,11,-1,-1,13,-1,-1],"loss_changes":[7.423002E4,5.859375E-2,2.1566406E1,0E0,0E0,3.618164E-1,0E0,5.696582E1,0E0,1.079956E0,0E0,0E0,4.6398926E-1,0E0,0E0],"parents":[2147483647,0,0,1,1,2,2,5,5,7,7,9,9,12,12],"right_children":[2,4,6,-1,-1,8,-1,10,-1,12,-1,-1,14,-1,-1],"split_conditions":[1.645836E-1,3.006478E-2,1.7547724E-1,-5.7140347E-2,-5.6180645E-2,2.0604396E-1,5.6275465E-2,2.0092852E-2,5.334598E-2,5.9720054E-2,-1.518021E-1,3.0629992E-2,1.654347E-1,4.7958445E-2,5.2833464E-2],"split_indices":[49,50,49,0,0,1,0,50,0,2,0,0,9,0,0],"split_type":[0,0,0,0,0,0,0,0,0,0,0,0,0,0,0],"sum_hessian":[5.9350723E4,2.9489744E4,2.9860979E4,4.1874717E3,2.5302273E4,6.9522427E3,2.2908734E4,1.2788181E3,5.6734243E3,1.2763153E3,2.502822E0,1.0782441E1,1.2655328E3,1.9124638E2,1.0742865E3],"tree_param":{"num_deleted":"0","num_feature":"51","num_nodes":"15","size_leaf_vector":"1"}},{"base_weights":[5.3989505E-3,8.2703775E-1,-1.0843328E0,8.8611996E-1,-1.0287608E0,-6.317512E-1,-1.1095375E0,5.0933474E-1,1.0041636E0,-6.954791E-1,-5.567494E-2,-1.0144285E-1,-9.4540006E-1,-9.185679E-1,-1.1125691E0,7.5234175E-1,-6.43337E-1,1.0561168E0,8.71619E-1,-5.5319678E-2,-1.0991481E-3,2.4008356E-1,-5.615743E-2,-1.7905682E-1,-1.0201663E0,-1.664322E-1,-1.0376652E0,-1.1144512E0,-9.2031866E-1,8.448559E-1,-4.7522184E-1,-1.6420405E-2,-9.714687E-1,1.0647705E0,7.555414E-1,9.387949E-1,3.0635843E-1,-5.387425E-2,5.96999E-1,5.668268E-1,-8.47692E-1,-5.652807E-2,6.6443926E-1,-6.1312604E-1,-1.0813762E0,5.372668E-1,-5.362899E-2,-5.737981E-1,-5.578188E-2,-1.0429354E0,-5.5832833E-2,5.923612E-1,-1.0168598E0,5.02021E-2,2.7269086E-2,3.9615333E-2,-4.0924307E-2,-2.2120772E-2,2.6411382E-2,-5.2726187E-2,-2.467164E-3,5.4636933E-2,5.0747037E-2,-5.6574535E-2,4.124602E-2,5.198298E-2,3.941929E-2,3.7636828E-2,-3.6794644E-2,-4.934356E-2,4.421364E-2,3.5741836E-2,-5.3599317E-2,-5.711303E-2,1.0485436E-2,-4.855204E-2,5.0976146E-2,-5.5951472E-2,2.0993814E-2,-5.5888075E-2,-4.4312283E-2,4.5304615E-2,-4.7261767E-2,-5.44173E-2,5.01074E-2,-5.5747867E-2,-1.2073452E-2,-4.0681507E-2,4.9162585E-2,-8.4732575E-3,-5.5791844E-2],"categories":[],"categories_nodes":[],"categories_segments":[],"categories_sizes":[],"default_left":[0,0,0,0,0,0,0,0,0,0,0,0,0,0,0,0,0,0,0,0,0,0,0,0,0,0,0,0,0,0,0,0,0,0,0,0,0,0,0,0,0,0,0,0,0,0,0,0,0,0,0,0,0,0,0,0,0,0,0,0,0,0,0,0,0,0,0,0,0,0,0,0,0,0,0,0,0,0,0,0,0,0,0,0,0,0,0,0,0,0,0],"id":31,"left_children":[1,3,5,7,9,11,13,15,17,19,-1,21,23,25,27,29,31,33,35,-1,37,39,-1,41,43,45,47,49,51,53,55,57,59,61,63,65,67,-1,69,71,73,-1,75,77,79,81,-1,83,-1,85,-1,87,89,-1,-1,-1,-1,-1,-1,-1,-1,-1,-1,-1,-1,-1,-1,-1,-1,-1,-1,-1,-1,-1,-1,-1,-1,-1,-1,-1,-1,-1,-1,-1,-1,-1,-1,-1,-1,-1,-1],"loss_changes":[5.1236105E4,3.5780664E3,2.7990625E2,1.4058066E3,2.7667358E1,2.161308E2,1.2466797E1,2.1138545E3,1.6486328E2,5.9008698E1,0E0,1.6924226E2,4.6613403E1,3.2955963E1,7.2714844E0,7.0811206E2,2.7033044E2,4.416992E1,2.57354E2,0E0,5.0785976E1,1.2976692E2,0E0,5.9992367E1,1.7871704E1,3.3573063E1,1.0900757E1,2.4160156E0,3.390526E1,2.7572607E2,1.9094664E2,1.0523222E2,6.601642E1,2.23125E1,6.473404E1,9.117529E1,3.3653906E2,0E0,2.3946308E1,6.87629E1,2.6535995E1,0E0,2.4078045E1,5.249741E1,3.5914307E0,1.714714E1,0E0,3.9994648E1,0E0,3.981256E1,0E0,8.666235E0,1.7821136E1,0E0,0E0,0E0,0E0,0E0,0E0,0E0,0E0,0E0,0E0,0E0,0E0,0E0,0E0,0E0,0E0,0E0,0E0,0E0,0E0,0E0,0E0,0E0,0E0,0E0,0E0,0E0,0E0,0E0,0E0,0E0,0E0,0E0,0E0,0E0,0E0,0E0,0E0],"parents":[2147483647,0,0,1,1,2,2,3,3,4,4,5,5,6,6,7,7,8,8,9,9,11,11,12,12,13,13,14,14,15,15,16,16,17,17,18,18,20,20,21,21,23,23,24,24,25,25,26,26,27,27,28,28,29,29,30,30,31,31,32,32,33,33,34,34,35,35,36,36,38,38,39,39,40,40,42,42,43,43,44,44,45,45,47,47,49,49,51,51,52,52],"right_children":[2,4,6,8,10,12,14,16,18,20,-1,22,24,26,28,30,32,34,36,-1,38,40,-1,42,44,46,48,50,52,54,56,58,60,62,64,66,68,-1,70,72,74,-1,76,78,80,82,-1,84,-1,86,-1,88,90,-1,-1,-1,-1,-1,-1,-1,-1,-1,-1,-1,-1,-1,-1,-1,-1,-1,-1,-1,-1,-1,-1,-1,-1,-1,-1,-1,-1,-1,-1,-1,-1,-1,-1,-1,-1,-1,-1],"split_conditions":[3.006478E-2,6.901526E-1,3.6204338E-2,1E0,1.2788131E-2,3.3333334E-1,3.813301E-2,7.3205084E-1,7.3205084E-1,7.5E-1,-5.567494E-2,1.7350158E-1,1.7037086E-2,2.4471741E-2,1E0,1E0,4.079282E-3,2.5539244E-2,1E0,-5.5319678E-2,8.345653E-1,7.3205084E-1,-5.615743E-2,9.5677274E-1,3.0794047E-2,1.655801E-1,1.874448E-1,8.9748666E-2,2.7390523E-3,3.3333334E-1,-6.137516E-3,1E0,1E0,6.8462704E-4,2.3023461E-1,-1.1947993E-3,2.488921E-3,-5.387425E-2,1E0,1E0,1.6726252E-1,-5.652807E-2,1E0,9.330127E-1,9.5677274E-1,3.3333334E-1,-5.362899E-2,2.1035531E-1,-5.578188E-2,5.483871E-1,-5.5832833E-2,8.345653E-1,5.7692308E-2,5.02021E-2,2.7269086E-2,3.9615333E-2,-4.0924307E-2,-2.2120772E-2,2.6411382E-2,-5.2726187E-2,-2.467164E-3,5.4636933E-2,5.0747037E-2,-5.6574535E-2,4.124602E-2,5.198298E-2,3.941929E-2,3.7636828E-2,-3.6794644E-2,-4.934356E-2,4.421364E-2,3.5741836E-2,-5.3599317E-2,-5.711303E-2,1.0485436E-2,-4.855204E-2,5.0976146E-2,-5.5951472E-2,2.0993814E-2,-5.5888075E-2,-4.4312283E-2,4.5304615E-2,-4.7261767E-2,-5.44173E-2,5.01074E-2,-5.5747867E-2,-1.2073452E-2,-4.0681507E-2,4.9162585E-2,-8.4732575E-3,-5.5791844E-2],"split_indices":[50,45,50,8,50,7,50,17,17,1,0,43,14,11,47,24,50,50,24,0,9,17,0,11,50,43,2,2,11,7,50,21,13,50,2,50,50,0,19,24,43,0,32,13,9,7,0,4,0,0,0,9,1,0,0,0,0,0,0,0,0,0,0,0,0,0,0,0,0,0,0,0,0,0,0,0,0,0,0,0,0,0,0,0,0,0,0,0,0,0,0],"split_type":[0,0,0,0,0,0,0,0,0,0,0,0,0,0,0,0,0,0,0,0,0,0,0,0,0,0,0,0,0,0,0,0,0,0,0,0,0,0,0,0,0,0,0,0,0,0,0,0,0,0,0,0,0,0,0,0,0,0,0,0,0,0,0,0,0,0,0,0,0,0,0,0,0,0,0,0,0,0,0,0,0,0,0,0,0,0,0,0,0,0,0],"sum_hessian":[5.7221652E4,3.262398E4,2.4597674E4,3.1617898E4,1.00608215E3,1.2989813E3,2.3298691E4,7.5438594E3,2.407404E4,2.0581233E2,8.002698E2,4.8324625E2,8.157351E2,3.688327E2,2.292986E4,6.230656E3,1.3132036E3,1.7289969E4,6.7840703E3,1.2892488E2,7.688745E1,3.627534E2,1.2049286E2,7.281248E1,7.4292267E2,5.0747093E1,3.180856E2,2.2702812E4,2.2704616E2,5.7942866E3,4.363691E2,4.5154602E2,8.6165765E2,1.6803645E4,4.8632422E2,6.0628916E3,7.211788E2,2.7176645E1,4.9710808E1,2.7932834E2,8.3425026E1,3.4055683E1,3.8756794E1,9.855534E1,6.443673E2,2.8793573E1,2.1953522E1,4.6976288E1,2.711093E2,6.9338104E2,2.2009432E4,1.3312945E1,2.1373322E2,3.7817417E3,2.0125449E3,9.271267E1,3.4365643E2,2.534772E2,1.980688E2,7.903298E2,7.132785E1,1.0749357E4,6.054287E3,1.6703316E1,4.6962088E2,3.625625E3,2.4372664E3,5.051217E2,2.1605707E2,7.2581344E0,4.245267E1,2.5670755E2,2.262081E1,6.5185524E1,1.8239502E1,6.6041317E0,3.215266E1,6.6100136E1,3.245521E1,5.391128E2,1.0525453E2,2.3368605E1,5.4249687E0,3.564693E1,1.1329356E1,6.3585065E2,5.7530373E1,2.6608114E0,1.0652134E1,2.2637127E1,1.9109608E2],"tree_param":{"num_deleted":"0","num_feature":"51","num_nodes":"91","size_leaf_vector":"1"}},{"base_weights":[3.7011283E-3,-1.1141455E0,1.0966705E0,-5.674128E-2,-5.552811E-2,1.0432634E0,5.5646528E-2,1.0442268E0,7.071218E-1,1.0245732E0,5.269548E-2,1.9910604E-2,5.0448366E-2,1.0293055E0,-1.366935E-1,5.155536E-2,3.0089954E-2],"categories":[],"categories_nodes":[],"categories_segments":[],"categories_sizes":[],"default_left":[0,0,0,0,0,0,0,0,0,0,0,0,0,0,0,0,0],"id":32,"left_children":[1,3,5,-1,-1,7,-1,9,11,13,-1,-1,-1,15,-1,-1,-1],"loss_changes":[6.7106875E4,7.5390625E-1,2.2957031E1,0E0,0E0,1.3652344E0,0E0,1.5283203E-1,1.6185102E0,4.1476562E1,0E0,0E0,0E0,1.0524902E0,0E0,0E0,0E0],"parents":[2147483647,0,0,1,1,2,2,5,5,7,7,8,8,9,9,13,13],"right_children":[2,4,6,-1,-1,8,-1,10,12,14,-1,-1,-1,16,-1,-1,-1],"split_conditions":[1.645836E-1,3.006478E-2,1.7547724E-1,-5.674128E-2,-5.552811E-2,6.966437E-1,5.5646528E-2,3.791209E-1,1.6677181E-1,2.935415E-2,5.269548E-2,1.9910604E-2,5.0448366E-2,6.8654644E-1,-1.366935E-1,5.155536E-2,3.0089954E-2],"split_indices":[49,50,49,0,0,2,0,1,43,50,0,0,0,46,0,0,0],"split_type":[0,0,0,0,0,0,0,0,0,0,0,0,0,0,0,0,0],"sum_hessian":[5.4923855E4,2.7152902E4,2.7770953E4,3.9633774E3,2.3189523E4,6.4968633E3,2.127409E4,6.4761963E3,2.0666958E1,2.1728E3,4.3033965E3,1.1360175E1,9.306782E0,2.170793E3,2.007095E0,2.1602769E3,1.0516085E1],"tree_param":{"num_deleted":"0","num_feature":"51","num_nodes":"17","size_leaf_vector":"1"}},{"base_weights":[-1.06756E-4,-1.1079773E0,1.0891125E0,-5.638523E-2,-5.5266827E-2,1.0319997E0,5.53392E-2,9.832218E-1,1.0362679E0,1.0396887E0,8.4605926E-1,1.0370176E0,2.616789E-2,1.0633589E0,8.57889E-1,9.581698E-1,9.5679805E-2,5.2061368E-2,9.9387485E-1,4.006217E-2,5.3843398E-2,1.2613497E-2,5.0271817E-2,3.20555E-2,5.353513E-2,-3.008344E-1,4.5589652E-2,5.1270362E-2,4.2629488E-2],"categories":[],"categories_nodes":[],"categories_segments":[],"categories_sizes":[],"default_left":[0,0,0,0,0,0,0,0,0,0,0,0,0,0,0,0,0,0,0,0,0,0,0,0,0,0,0,0,0],"id":33,"left_children":[1,3,5,-1,-1,7,-1,9,11,13,15,17,-1,19,21,23,25,-1,27,-1,-1,-1,-1,-1,-1,-1,-1,-1,-1],"loss_changes":[6.3220324E4,1.07421875E-1,2.5519531E1,0E0,0E0,2.8320312E-1,0E0,3.1710815E0,1.6630859E0,6.632385E-1,1.3190804E1,5.3710938E-3,0E0,2.6940918E-1,3.9775658E0,4.2107773E0,1.1340521E2,0E0,1.4915161E0,0E0,0E0,0E0,0E0,0E0,0E0,0E0,0E0,0E0,0E0],"parents":[2147483647,0,0,1,1,2,2,5,5,7,7,8,8,9,9,10,10,11,11,13,13,14,14,15,15,16,16,18,18],"right_children":[2,4,6,-1,-1,8,-1,10,12,14,16,18,-1,20,22,24,26,-1,28,-1,-1,-1,-1,-1,-1,-1,-1,-1,-1],"split_conditions":[1.645836E-1,6.5492374E-1,1.7547724E-1,-5.638523E-2,-5.5266827E-2,2.4535577E-3,5.53392E-2,6.0395586E-1,7.096774E-1,1E0,8.535534E-1,9.330127E-1,2.616789E-2,5.2197803E-2,7.2252095E-1,6.666667E-1,1E0,5.2061368E-2,1E0,4.006217E-2,5.3843398E-2,1.2613497E-2,5.0271817E-2,3.20555E-2,5.353513E-2,-3.008344E-1,4.5589652E-2,5.1270362E-2,4.2629488E-2],"split_indices":[49,45,49,0,0,43,0,9,0,21,13,14,0,1,15,7,16,0,21,0,0,0,0,0,0,0,0,0,0],"split_type":[0,0,0,0,0,0,0,0,0,0,0,0,0,0,0,0,0,0,0,0,0,0,0,0,0,0,0,0,0],"sum_hessian":[5.2388484E4,2.597187E4,2.6416615E4,3.0157776E3,2.2956092E4,6.2562554E3,2.016036E4,5.22002E2,5.7342534E3,3.651129E2,1.5688913E2,5.7248633E3,9.389813E0,3.1876147E2,4.635142E1,1.3625502E2,2.063411E1,5.1948286E3,5.300346E2,1.8579319E1,3.0018216E2,9.611219E0,3.67402E1,3.7446648E1,9.880837E1,1.6799058E0,1.8954203E1,4.2820847E2,1.0182615E2],"tree_param":{"num_deleted":"0","num_feature":"51","num_nodes":"29","size_leaf_vector":"1"}},{"base_weights":[2.9015935E-3,-1.102163E0,1.0832965E0,-5.6028485E-2,-5.4947622E-2,1.0238025E0,5.5052795E-2,1.0247673E0,7.8960496E-1,1.002602E0,1.0360439E0,1.3144259E-2,5.2515574E-2,1.0085378E0,-1.2798883E-1,1.046648E0,1.0068716E0,4.269483E-2,5.0849825E-2,3.0650383E-2,5.23937E-2,4.126918E-2,5.1182397E-2],"categories":[],"categories_nodes":[],"categories_segments":[],"categories_sizes":[],"default_left":[0,0,0,0,0,0,0,0,0,0,0,0,0,0,0,0,0,0,0,0,0,0,0],"id":34,"left_children":[1,3,5,-1,-1,7,-1,9,11,13,15,-1,-1,17,-1,19,21,-1,-1,-1,-1,-1,-1],"loss_changes":[5.99591E4,2.3632812E-1,2.5703125E1,0E0,0E0,5.131836E-1,0E0,4.169922E-1,3.6189594E0,4.4766968E1,1.3085938E-1,0E0,0E0,1.737793E0,0E0,8.378906E-1,2.3444824E0,0E0,0E0,0E0,0E0,0E0,0E0],"parents":[2147483647,0,0,1,1,2,2,5,5,7,7,8,8,9,9,10,10,13,13,15,15,16,16],"right_children":[2,4,6,-1,-1,8,-1,10,12,14,16,-1,-1,18,-1,20,22,-1,-1,-1,-1,-1,-1],"split_conditions":[1.645836E-1,3.006478E-2,1.7547724E-1,-5.6028485E-2,-5.4947622E-2,6.966437E-1,5.5052795E-2,3.791209E-1,1.6677181E-1,2.859597E-2,7.3205084E-1,1.3144259E-2,5.2515574E-2,2.2432527E-3,-1.2798883E-1,2.7390523E-3,1.2842758E-1,4.269483E-2,5.0849825E-2,3.0650383E-2,5.23937E-2,4.126918E-2,5.1182397E-2],"split_indices":[49,50,49,0,0,2,0,1,43,50,17,0,0,43,0,12,11,0,0,0,0,0,0],"split_type":[0,0,0,0,0,0,0,0,0,0,0,0,0,0,0,0,0,0,0,0,0,0,0],"sum_hessian":[5.0218953E4,2.4826027E4,2.5392924E4,3.6353545E3,2.1190674E4,5.850906E3,1.9542018E4,5.8235405E3,2.736508E1,1.9940189E3,3.8295217E3,9.725158E0,1.7639923E1,1.9914176E3,2.601249E0,2.7830178E3,1.046504E3,1.085672E2,1.8828505E3,9.258259E0,2.7737595E3,9.279831E1,9.537057E2],"tree_param":{"num_deleted":"0","num_feature":"51","num_nodes":"23","size_leaf_vector":"1"}},{"base_weights":[-5.2166507E-3,-1.0966728E0,1.0765097E0,-5.5694647E-2,-5.468293E-2,1.0153605E0,5.4780066E-2,9.9459594E-1,1.0259984E0,1.0000902E0,-1.21060066E-1,9.971006E-1,1.03638E0,8.8217956E-1,1.0081246E0,8.379575E-1,1.014851E0,2.9886661E-2,5.1880807E-2,1.3473609E-2,4.8863348E-2,2.8350895E-2,5.049429E-2,5.109678E-2,1.4044692E-2,5.1342197E-2,3.8861446E-2],"categories":[],"categories_nodes":[],"categories_segments":[],"categories_sizes":[],"default_left":[0,0,0,0,0,0,0,0,0,0,0,0,0,0,0,0,0,0,0,0,0,0,0,0,0,0,0],"id":35,"left_children":[1,3,5,-1,-1,7,-1,9,11,13,-1,15,17,19,21,23,25,-1,-1,-1,-1,-1,-1,-1,-1,-1,-1],"loss_changes":[5.62119E4,1.171875E-2,2.6804688E1,0E0,0E0,2.397461E-1,0E0,3.9291992E1,8.8134766E-2,9.694824E-1,0E0,2.0159912E0,8.5791016E-1,7.495636E0,8.491211E-1,1.0736366E1,1.789917E0,0E0,0E0,0E0,0E0,0E0,0E0,0E0,0E0,0E0,0E0],"parents":[2147483647,0,0,1,1,2,2,5,5,7,7,8,8,9,9,11,11,12,12,13,13,14,14,15,15,16,16],"right_children":[2,4,6,-1,-1,8,-1,10,12,14,-1,16,18,20,22,24,26,-1,-1,-1,-1,-1,-1,-1,-1,-1,-1],"split_conditions":[1.645836E-1,3.006478E-2,1.7547724E-1,-5.5694647E-2,-5.468293E-2,3.791209E-1,5.4780066E-2,2.935415E-2,1E0,2.2432527E-3,-1.21060066E-1,1.2842758E-1,2.7390523E-3,5E-1,5.9720054E-2,6.098901E-1,2.5539244E-2,2.9886661E-2,5.1880807E-2,1.3473609E-2,4.8863348E-2,2.8350895E-2,5.049429E-2,5.109678E-2,1.4044692E-2,5.1342197E-2,3.8861446E-2],"split_indices":[49,50,49,0,0,1,0,50,18,43,0,11,12,10,2,1,50,0,0,0,0,0,0,0,0,0,0],"split_type":[0,0,0,0,0,0,0,0,0,0,0,0,0,0,0,0,0,0,0,0,0,0,0,0,0,0,0],"sum_hessian":[4.76087E4,2.3697766E4,2.3910932E4,3.475269E3,2.0222498E4,5.701973E3,1.8208959E4,1.9636145E3,3.7383584E3,1.9611671E3,2.4472992E0,1.0137172E3,2.7246414E3,1.3217697E2,1.8289902E3,1.0655873E2,9.071585E2,9.017448E0,2.7156238E3,1.8272135E1,1.1390485E2,8.557805E0,1.8204324E3,7.947613E1,2.7082611E1,8.604118E2,4.6746685E1],"tree_param":{"num_deleted":"0","num_feature":"51","num_nodes":"27","size_leaf_vector":"1"}},{"base_weights":[2.1344766E-3,-5.457599E-2,1.0704257E0,1.007724E0,5.452765E-2,9.835963E-1,1.0201212E0,9.8991466E-1,-1.1672789E-1,1.0221312E0,8.6323917E-1,8.622026E-1,9.9779916E-1,1.0324475E0,9.904592E-1,9.9667037E-1,8.041827E-3,-2.8265974E-1,4.967309E-2,5.0179213E-2,4.151445E-2,5.172186E-2,1.8080715E-2,4.9805783E-2,3.255978E-2,5.4116875E-2,2.8797267E-2],"categories":[],"categories_nodes":[],"categories_segments":[],"categories_sizes":[],"default_left":[0,0,0,0,0,0,0,0,0,0,0,0,0,0,0,0,0,0,0,0,0,0,0,0,0,0,0],"id":36,"left_children":[1,-1,3,5,-1,7,9,11,-1,13,15,17,19,21,23,25,-1,-1,-1,-1,-1,-1,-1,-1,-1,-1,-1],"loss_changes":[5.3607973E4,0E0,2.8191406E1,6.879883E-1,0E0,4.3125977E1,2.8686523E-1,1.0968018E0,0E0,1.7138672E-1,4.838295E0,1.0856948E2,9.3481445E-1,3.2746582E0,1.1220703E0,9.851074E-1,0E0,0E0,0E0,0E0,0E0,0E0,0E0,0E0,0E0,0E0,0E0],"parents":[2147483647,0,0,2,2,3,3,5,5,6,6,7,7,9,9,10,10,11,11,12,12,13,13,14,14,15,15],"right_children":[2,-1,4,6,-1,8,10,12,-1,14,16,18,20,22,24,26,-1,-1,-1,-1,-1,-1,-1,-1,-1,-1,-1],"split_conditions":[1.645836E-1,-5.457599E-2,1.7547724E-1,3.791209E-1,5.452765E-2,2.935415E-2,6.1290324E-1,2.2432527E-3,-1.1672789E-1,1E0,5.522642E-1,5E-1,6.6074896E-1,1E0,1E0,7.938926E-1,8.041827E-3,-2.8265974E-1,4.967309E-2,5.0179213E-2,4.151445E-2,5.172186E-2,1.8080715E-2,4.9805783E-2,3.255978E-2,5.4116875E-2,2.8797267E-2],"split_indices":[49,0,49,1,0,50,0,43,0,25,11,10,45,9,15,10,0,0,0,0,0,0,0,0,0,0,0],"split_type":[0,0,0,0,0,0,0,0,0,0,0,0,0,0,0,0,0,0,0,0,0,0,0,0,0,0,0],"sum_hessian":[4.588183E4,2.267177E4,2.3210057E4,5.6523975E3,1.755766E4,1.9457894E3,3.706608E3,1.9427916E3,2.9977427E0,3.6542737E3,5.2334057E1,1.1938411E2,1.8234076E3,2.7326045E3,9.216694E2,4.362747E1,8.70659E0,1.526833E0,1.1785728E2,1.7577122E3,6.569542E1,2.723983E3,8.621495E0,9.0465027E2,1.7019089E1,3.4940422E1,8.687046E0],"tree_param":{"num_deleted":"0","num_feature":"51","num_nodes":"27","size_leaf_vector":"1"}},{"base_weights":[-2.5187884E-3,-5.433429E-2,1.0641334E0,9.947093E-1,5.428475E-2,9.6427715E-1,1.0071363E0,9.698785E-1,-1.0256863E-1,1.0218647E0,9.6315306E-1,2.2321073E-2,9.724514E-1,2.300032E-2,1.0234468E0,9.6893597E-1,1.8745638E-2,4.8747726E-2,2.4260005E-2,5.127235E-2,3.9949633E-2,4.1452523E-2,4.9373597E-2],"categories":[],"categories_nodes":[],"categories_segments":[],"categories_sizes":[],"default_left":[0,0,0,0,0,0,0,0,0,0,0,0,0,0,0,0,0,0,0,0,0,0,0],"id":37,"left_children":[1,-1,3,5,-1,7,9,11,-1,13,15,-1,17,-1,19,21,-1,-1,-1,-1,-1,-1,-1],"loss_changes":[5.0536645E4,0E0,3.1894531E1,1.0078125E0,0E0,2.8012207E1,1.4074707E0,1.6379395E0,0E0,1.9736328E0,2.8469849E0,0E0,1.3930664E0,0E0,4.116211E-1,1.6029053E0,0E0,0E0,0E0,0E0,0E0,0E0,0E0],"parents":[2147483647,0,0,2,2,3,3,5,5,6,6,7,7,9,9,10,10,12,12,14,14,15,15],"right_children":[2,-1,4,6,-1,8,10,12,-1,14,16,-1,18,-1,20,22,-1,-1,-1,-1,-1,-1,-1],"split_conditions":[1.645836E-1,-5.433429E-2,1.7547724E-1,3.434066E-1,5.428475E-2,2.935415E-2,7.3205084E-1,5.9720054E-2,-1.0256863E-1,2.7390523E-3,2.935415E-2,2.2321073E-2,6.8654644E-1,2.300032E-2,6.1290324E-1,1.2842758E-1,1.8745638E-2,4.8747726E-2,2.4260005E-2,5.127235E-2,3.9949633E-2,4.1452523E-2,4.9373597E-2],"split_indices":[49,0,49,1,0,50,17,2,0,12,50,0,45,0,0,11,0,0,0,0,0,0,0],"split_type":[0,0,0,0,0,0,0,0,0,0,0,0,0,0,0,0,0,0,0,0,0,0,0],"sum_hessian":[4.3698598E4,2.1671363E4,2.2027234E4,5.231143E3,1.6796092E4,1.5395607E3,3.6915825E3,1.5373834E3,2.1771786E0,2.7488623E3,9.427203E2,8.373223E0,1.5290103E3,8.538174E0,2.7403242E3,9.329019E2,9.818348E0,1.5201998E3,8.810397E0,2.7125815E3,2.7742708E1,1.14503624E2,8.183983E2],"tree_param":{"num_deleted":"0","num_feature":"51","num_nodes":"23","size_leaf_vector":"1"}},{"base_weights":[-8.0423406E-4,-5.4104906E-2,1.0591775E0,9.89026E-1,5.40591E-2,9.9013394E-1,7.216155E-1,9.6799415E-1,5.007424E-2,7.5524054E-3,5.105249E-2,9.743448E-1,-1.0469147E-1,4.132506E-2,4.9172744E-2],"categories":[],"categories_nodes":[],"categories_segments":[],"categories_sizes":[],"default_left":[0,0,0,0,0,0,0,0,0,0,0,0,0,0,0],"id":38,"left_children":[1,-1,3,5,-1,7,9,11,-1,-1,-1,13,-1,-1,-1],"loss_changes":[4.7914156E4,0E0,3.1515625E1,7.8222656E-1,0E0,2.944336E-1,4.037218E0,3.5762817E1,0E0,0E0,0E0,1.519043E0,0E0,0E0,0E0],"parents":[2147483647,0,0,2,2,3,3,5,5,6,6,7,7,11,11],"right_children":[2,-1,4,6,-1,8,10,12,-1,-1,-1,14,-1,-1,-1],"split_conditions":[1.645836E-1,-5.4104906E-2,1.7547724E-1,6.966437E-1,5.40591E-2,3.791209E-1,1.6677181E-1,2.935415E-2,5.007424E-2,7.5524054E-3,5.105249E-2,2.2432527E-3,-1.0469147E-1,4.132506E-2,4.9172744E-2],"split_indices":[49,0,49,2,0,1,44,50,0,0,0,44,0,0,0],"split_type":[0,0,0,0,0,0,0,0,0,0,0,0,0,0,0],"sum_hessian":[4.180237E4,2.0693146E4,2.1109227E4,5.051315E3,1.6057912E4,5.0277817E3,2.3533276E1,1.733291E3,3.2944907E3,8.617398E0,1.4915876E1,1.7303837E3,2.907277E0,1.0576054E2,1.6246232E3],"tree_param":{"num_deleted":"0","num_feature":"51","num_nodes":"15","size_leaf_vector":"1"}},{"base_weights":[5.035436E-3,-5.3888645E-2,1.0539482E0,9.8103344E-1,5.384607E-2,9.4664663E-1,9.892475E-1,9.5402014E-1,-8.710238E-2,1.0003355E0,9.599107E-1,1.7704107E-2,9.5825106E-1,1.0690625E-2,1.0025487E0,9.822629E-1,8.089013E-1,4.8153996E-2,2.0857561E-2,2.4010783E-2,5.0187714E-2,4.9380466E-2,1.5388535E-2,4.3716915E-2,1.1422813E-2],"categories":[],"categories_nodes":[],"categories_segments":[],"categories_sizes":[],"default_left":[0,0,0,0,0,0,0,0,0,0,0,0,0,0,0,0,0,0,0,0,0,0,0,0,0],"id":39,"left_children":[1,-1,3,5,-1,7,9,11,-1,13,15,-1,17,-1,19,21,23,-1,-1,-1,-1,-1,-1,-1,-1],"loss_changes":[4.559453E4,0E0,3.3097656E1,4.4628906E-1,0E0,2.0839966E1,3.1860352E-1,2.111084E0,0E0,4.7092285E0,2.9276123E0,0E0,2.1014404E0,0E0,1.2939453E0,3.1431885E0,5.4159775E0,0E0,0E0,0E0,0E0,0E0,0E0,0E0,0E0],"parents":[2147483647,0,0,2,2,3,3,5,5,6,6,7,7,9,9,10,10,12,12,14,14,15,15,16,16],"right_children":[2,-1,4,6,-1,8,10,12,-1,14,16,-1,18,-1,20,22,24,-1,-1,-1,-1,-1,-1,-1,-1],"split_conditions":[1.645836E-1,-5.3888645E-2,1.7547724E-1,2.1428572E-1,5.384607E-2,2.707985E-2,7.3205084E-1,6.781555E-2,-8.710238E-2,2.7390523E-3,9.330127E-1,1.7704107E-2,2.0092852E-2,1.0690625E-2,2.7390523E-3,2.859597E-2,6.2940955E-1,4.8153996E-2,2.0857561E-2,2.4010783E-2,5.0187714E-2,4.9380466E-2,1.5388535E-2,4.3716915E-2,1.1422813E-2],"split_indices":[49,0,49,1,0,50,17,2,0,12,9,0,50,0,11,50,14,0,0,0,0,0,0,0,0],"split_type":[0,0,0,0,0,0,0,0,0,0,0,0,0,0,0,0,0,0,0,0,0,0,0,0,0],"sum_hessian":[4.0142105E4,1.9751898E4,2.0390207E4,4.8956333E3,1.5494574E4,9.6635815E2,3.9292751E3,9.6435864E2,1.9994879E0,2.8275068E3,1.1017684E3,7.3463836E0,9.5701227E2,8.207837E0,2.8192988E3,9.5491815E2,1.4685033E2,9.4777435E2,9.23792E0,7.411981E0,2.811887E3,9.469479E2,7.9702797E0,1.315173E2,1.5333032E1],"tree_param":{"num_deleted":"0","num_feature":"51","num_nodes":"25","size_leaf_vector":"1"}},{"base_weights":[1.5598659E-3,-5.368463E-2,1.0492506E0,9.766253E-1,5.3643685E-2,9.5482016E-1,9.925401E-1,9.566086E-1,-5.509153E-2,9.9376315E-1,2.371846E-2,9.590858E-1,3.8681594E-1,1.0074499E0,9.532401E-1,2.5161196E-2,4.802868E-2,4.891416E-2,-1.0189445E-1,3.1249568E-2,5.0430965E-2,4.838255E-2,3.0979997E-2],"categories":[],"categories_nodes":[],"categories_segments":[],"categories_sizes":[],"default_left":[0,0,0,0,0,0,0,0,0,0,0,0,0,0,0,0,0,0,0,0,0,0,0],"id":40,"left_children":[1,-1,3,5,-1,7,9,11,-1,13,-1,15,17,19,21,-1,-1,-1,-1,-1,-1,-1,-1],"loss_changes":[4.3096883E4,0E0,3.2195312E1,7.0654297E-1,0E0,8.548706E0,1.2585449E0,2.503296E0,0E0,5.500488E-1,0E0,8.9123535E-1,1.7038628E1,2.722168E-1,2.795227E0,0E0,0E0,0E0,0E0,0E0,0E0,0E0,0E0],"parents":[2147483647,0,0,2,2,3,3,5,5,6,6,7,7,9,9,11,11,12,12,13,13,14,14],"right_children":[2,-1,4,6,-1,8,10,12,-1,14,-1,16,18,20,22,-1,-1,-1,-1,-1,-1,-1,-1],"split_conditions":[1.645836E-1,-5.368463E-2,1.7547724E-1,1E0,5.3643685E-2,3.2847036E-2,6.966437E-1,3.0794047E-2,-5.509153E-2,7.3205084E-1,2.371846E-2,5.0515115E-2,9.5491506E-2,2.7390523E-3,2.5539244E-2,2.5161196E-2,4.802868E-2,4.891416E-2,-1.0189445E-1,3.1249568E-2,5.0430965E-2,4.838255E-2,3.0979997E-2],"split_indices":[49,0,49,6,0,50,2,50,0,17,0,2,12,12,50,0,0,0,0,0,0,0,0],"split_type":[0,0,0,0,0,0,0,0,0,0,0,0,0,0,0,0,0,0,0,0,0,0,0],"sum_hessian":[3.825425E4,1.887879E4,1.9375459E4,4.7658857E3,1.4609573E4,2.0365575E3,2.7293281E3,2.0353224E3,1.235048E0,2.7219858E3,7.3423247E0,2.0258318E3,9.490652E0,2.016911E3,7.0507477E2,7.693816E0,2.018138E3,8.109103E0,1.3815484E0,7.7805386E0,2.0091304E3,6.740599E2,3.1014942E1],"tree_param":{"num_deleted":"0","num_feature":"51","num_nodes":"23","size_leaf_vector":"1"}},{"base_weights":[1.2808363E-3,-5.349177E-2,1.0438306E0,9.653368E-1,5.3451803E-2,7.332993E-1,9.670517E-1,9.1813236E-1,-2.4655617E-3,9.3073875E-1,9.7584534E-1,5.2167166E-2,2.1164088E-2,9.373443E-1,-7.297673E-2,9.890705E-1,9.423421E-1,4.7124352E-2,1.8747834E-2,4.9551506E-2,3.9923154E-2,4.742615E-2,1.0470399E-2],"categories":[],"categories_nodes":[],"categories_segments":[],"categories_sizes":[],"default_left":[0,0,0,0,0,0,0,0,0,0,0,0,0,0,0,0,0,0,0,0,0,0,0],"id":41,"left_children":[1,-1,3,5,-1,7,9,11,-1,13,15,-1,-1,17,-1,19,21,-1,-1,-1,-1,-1,-1],"loss_changes":[4.0772125E4,0E0,3.557422E1,1.0839844E0,0E0,5.4271755E0,5.1953125E-1,1.4263916E0,0E0,1.5473145E1,6.5405273E-1,0E0,0E0,2.2248535E0,0E0,1.5942383E-1,4.486145E0,0E0,0E0,0E0,0E0,0E0,0E0],"parents":[2147483647,0,0,2,2,3,3,5,5,6,6,7,7,9,9,10,10,13,13,15,15,16,16],"right_children":[2,-1,4,6,-1,8,10,12,-1,14,16,-1,-1,18,-1,20,22,-1,-1,-1,-1,-1,-1],"split_conditions":[1.645836E-1,-5.349177E-2,1.7547724E-1,2.7390523E-3,5.3451803E-2,3.862245E-1,2.1428572E-1,2.5E-1,-2.4655617E-3,2.707985E-2,7.3205084E-1,5.2167166E-2,2.1164088E-2,2.0092852E-2,-7.297673E-2,6.1290324E-1,2.935415E-2,4.7124352E-2,1.8747834E-2,4.9551506E-2,3.9923154E-2,4.742615E-2,1.0470399E-2],"split_indices":[49,0,49,12,0,4,1,14,0,50,17,0,0,50,0,0,50,0,0,0,0,0,0],"split_type":[0,0,0,0,0,0,0,0,0,0,0,0,0,0,0,0,0,0,0,0,0,0,0],"sum_hessian":[3.650952E4,1.8008031E4,1.8501486E4,4.5065615E3,1.3994925E4,3.620578E1,4.470356E3,2.9148474E1,7.0573072E0,8.923413E2,3.5780146E3,2.2377855E1,6.7706184E0,8.904883E2,1.8530184E0,2.5449128E3,1.0331018E3,8.817493E2,8.738988E0,2.5148582E3,3.0054867E1,1.0241707E3,8.931046E0],"tree_param":{"num_deleted":"0","num_feature":"51","num_nodes":"23","size_leaf_vector":"1"}},{"base_weights":[-1.4709098E-3,-5.3310115E-2,1.038395E0,9.5347124E-1,5.3271364E-2,9.227515E-1,9.688816E-1,9.2971855E-1,-9.010055E-2,9.859944E-1,9.185801E-1,1.513332E-2,9.3250275E-1,2.3788232E-2,9.875696E-1,9.3043894E-1,5.10718E-1,4.676052E-2,1.7899413E-2,4.8193537E-2,5.0481062E-2,3.597611E-2,4.7705006E-2,4.4350453E-2,-1.2517276E-2],"categories":[],"categories_nodes":[],"categories_segments":[],"categories_sizes":[],"default_left":[0,0,0,0,0,0,0,0,0,0,0,0,0,0,0,0,0,0,0,0,0,0,0,0,0],"id":42,"left_children":[1,-1,3,5,-1,7,9,11,-1,13,15,-1,17,-1,19,21,23,-1,-1,-1,-1,-1,-1,-1,-1],"loss_changes":[3.8525098E4,0E0,3.9396484E1,1.1225586E0,0E0,2.90896E1,1.519043E0,2.2337646E0,0E0,1.2084961E0,3.0540771E0,0E0,1.8961182E0,0E0,1.1425781E-1,2.8459473E0,6.7610083E0,0E0,0E0,0E0,0E0,0E0,0E0,0E0,0E0],"parents":[2147483647,0,0,2,2,3,3,5,5,6,6,7,7,9,9,10,10,12,12,14,14,15,15,16,16],"right_children":[2,-1,4,6,-1,8,10,12,-1,14,16,-1,18,-1,20,22,24,-1,-1,-1,-1,-1,-1,-1,-1],"split_conditions":[1.645836E-1,-5.3310115E-2,1.7547724E-1,3.791209E-1,5.3271364E-2,2.935415E-2,7.3205084E-1,2.7390523E-3,-9.010055E-2,2.7390523E-3,2.631226E-2,1.513332E-2,6.8654644E-1,2.3788232E-2,1E0,1.2842758E-1,6.098901E-1,4.676052E-2,1.7899413E-2,4.8193537E-2,5.0481062E-2,3.597611E-2,4.7705006E-2,4.4350453E-2,-1.2517276E-2],"split_indices":[49,0,49,1,0,50,17,12,0,12,50,0,46,0,23,11,1,0,0,0,0,0,0,0,0],"split_type":[0,0,0,0,0,0,0,0,0,0,0,0,0,0,0,0,0,0,0,0,0,0,0,0,0],"sum_hessian":[3.4793766E4,1.7191328E4,1.7602436E4,4.2589404E3,1.3343495E4,1.4430929E3,2.8158477E3,1.4400695E3,3.0234077E0,2.0871785E3,7.286691E2,6.8507953E0,1.4332186E3,7.35618E0,2.0798223E3,7.068361E2,2.1833012E1,1.4258707E3,7.347915E0,1.0240206E3,1.0558016E3,7.4464645E1,6.323715E2,1.4498877E1,7.334135E0],"tree_param":{"num_deleted":"0","num_feature":"51","num_nodes":"25","size_leaf_vector":"1"}},{"base_weights":[-2.9023557E-3,-5.3138275E-2,1.0339808E0,9.45795E-1,5.3101595E-2,9.1712505E-1,9.600068E-1,9.243111E-1,-8.724075E-2,8.8502485E-1,9.6766514E-1,5.3232324E-1,9.295918E-1,9.079556E-1,-1.5909218E-3,9.703042E-1,6.9025123E-1,-1.2899703E-2,4.9460314E-2,4.6843063E-2,3.7492916E-2,4.640199E-2,4.988726E-3,4.917739E-2,4.6471294E-2,5.099706E-2,-1.4446142E-2],"categories":[],"categories_nodes":[],"categories_segments":[],"categories_sizes":[],"default_left":[0,0,0,0,0,0,0,0,0,0,0,0,0,0,0,0,0,0,0,0,0,0,0,0,0,0,0],"id":43,"left_children":[1,-1,3,5,-1,7,9,11,-1,13,15,17,19,21,-1,23,25,-1,-1,-1,-1,-1,-1,-1,-1,-1,-1],"loss_changes":[3.645322E4,0E0,4.0472656E1,7.722168E-1,0E0,2.7751343E1,6.8847656E-1,2.3273926E0,0E0,5.516144E0,1.1091309E0,7.6441245E0,1.0534668E0,4.041046E0,0E0,3.876953E-1,8.805759E0,0E0,0E0,0E0,0E0,0E0,0E0,0E0,0E0,0E0,0E0],"parents":[2147483647,0,0,2,2,3,3,5,5,6,6,7,7,9,9,10,10,11,11,12,12,13,13,15,15,16,16],"right_children":[2,-1,4,6,-1,8,10,12,-1,14,16,18,20,22,-1,24,26,-1,-1,-1,-1,-1,-1,-1,-1,-1,-1],"split_conditions":[1.645836E-1,-5.3138275E-2,1.7547724E-1,3.791209E-1,5.3101595E-2,2.859597E-2,6.69873E-2,1.0515247E-3,-8.724075E-2,9.890738E-1,6.341369E-1,1E0,6.6074896E-1,1E0,-1.5909218E-3,1E0,1E0,-1.2899703E-2,4.9460314E-2,4.6843063E-2,3.7492916E-2,4.640199E-2,4.988726E-3,4.917739E-2,4.6471294E-2,5.099706E-2,-1.4446142E-2],"split_indices":[49,0,49,1,0,50,10,43,0,11,2,28,45,16,0,25,8,0,0,0,0,0,0,0,0,0,0],"split_type":[0,0,0,0,0,0,0,0,0,0,0,0,0,0,0,0,0,0,0,0,0,0,0,0,0,0,0],"sum_hessian":[3.3168824E4,1.6402639E4,1.6766186E4,4.0544998E3,1.2711687E4,1.3654489E3,2.6890508E3,1.3624237E3,3.0251622E0,2.5999948E2,2.4290513E3,1.9463232E1,1.3429604E3,2.5366487E2,6.3346E0,2.4036868E3,2.5364452E1,7.289374E0,1.2173859E1,1.2867056E3,5.625486E1,2.4736916E2,6.295708E0,1.7980885E3,6.055983E2,1.8944248E1,6.420203E0],"tree_param":{"num_deleted":"0","num_feature":"51","num_nodes":"27","size_leaf_vector":"1"}},{"base_weights":[2.3087337E-5,-5.2976128E-2,1.0290136E0,9.315516E-1,5.2941382E-2,9.092342E-1,9.620031E-1,9.1843194E-1,4.7460687E-1,9.8522264E-1,8.859496E-1,8.012782E-1,9.302018E-1,7.39281E-1,-2.897675E-1,8.322777E-1,4.967281E-2,9.0654457E-1,-9.406231E-3,7.711805E-4,4.3171227E-2,4.727984E-2,4.2258818E-2,-1.03928305E-1,4.364971E-2,4.7762066E-2,-1.6562583E-2,1.9641688E-2,4.7166232E-2],"categories":[],"categories_nodes":[],"categories_segments":[],"categories_sizes":[],"default_left":[0,0,0,0,0,0,0,0,0,0,0,0,0,0,0,0,0,0,0,0,0,0,0,0,0,0,0,0,0],"id":44,"left_children":[1,-1,3,5,-1,7,9,11,13,15,17,19,21,23,-1,25,-1,27,-1,-1,-1,-1,-1,-1,-1,-1,-1,-1,-1],"loss_changes":[3.4618027E4,0E0,4.581836E1,1.6955566E0,0E0,8.360718E0,1.9210205E0,2.2246094E0,8.339611E1,6.882324E-1,8.575775E0,9.942123E0,1.7546387E0,1.9383291E1,0E0,9.991596E0,0E0,6.6769714E0,0E0,0E0,0E0,0E0,0E0,0E0,0E0,0E0,0E0,0E0,0E0],"parents":[2147483647,0,0,2,2,3,3,5,5,6,6,7,7,8,8,9,9,10,10,11,11,12,12,13,13,15,15,17,17],"right_children":[2,-1,4,6,-1,8,10,12,14,16,18,20,22,24,-1,26,-1,28,-1,-1,-1,-1,-1,-1,-1,-1,-1,-1,-1],"split_conditions":[1.645836E-1,-5.2976128E-2,1.7547724E-1,6.593407E-1,5.2941382E-2,6.6185856E-1,7.3205084E-1,2.4535577E-3,3.9942846E-1,2.4471741E-2,2.4814151E-2,1.2842758E-1,1E0,2.3626374E-1,-2.897675E-1,5E-1,4.967281E-2,1.2842758E-1,-9.406231E-3,7.711805E-4,4.3171227E-2,4.727984E-2,4.2258818E-2,-1.03928305E-1,4.364971E-2,4.7762066E-2,-1.6562583E-2,1.9641688E-2,4.7166232E-2],"split_indices":[49,0,49,1,0,45,17,43,2,12,50,10,30,1,0,15,0,11,0,0,0,0,0,0,0,0,0,0,0],"split_type":[0,0,0,0,0,0,0,0,0,0,0,0,0,0,0,0,0,0,0,0,0,0,0,0,0,0,0,0,0],"sum_hessian":[3.1750012E4,1.5642741E4,1.61072705E4,3.780629E3,1.2326642E4,2.1995083E3,1.5811206E3,2.1528362E3,4.6672157E1,1.2021458E3,3.789748E2,2.0284607E2,1.9499901E3,4.5628147E1,1.0440124E0,6.6624596E1,1.1355212E3,3.7199786E2,6.9769382E0,1.4957193E1,1.8788887E2,1.6424774E3,3.075127E2,1.4081478E0,4.4219997E1,6.0418488E1,6.2061043E0,2.5634775E1,3.4636307E2],"tree_param":{"num_deleted":"0","num_feature":"51","num_nodes":"29","size_leaf_vector":"1"}},{"base_weights":[5.56336E-4,-5.2821994E-2,1.0244634E0,9.25618E-1,5.278918E-2,5.845275E-1,9.278404E-1,8.736955E-1,-1.3940327E-2,9.436686E-1,8.905661E-1,5.008331E-2,2.4687728E-2,8.834518E-3,9.453421E-1,3.701213E-1,8.958879E-1,4.5624804E-2,4.9071178E-2,-9.93618E-3,4.557046E-2,4.5067154E-2,1.8331066E-2],"categories":[],"categories_nodes":[],"categories_segments":[],"categories_sizes":[],"default_left":[0,0,0,0,0,0,0,0,0,0,0,0,0,0,0,0,0,0,0,0,0,0,0],"id":45,"left_children":[1,-1,3,5,-1,7,9,11,-1,13,15,-1,-1,-1,17,19,21,-1,-1,-1,-1,-1,-1],"loss_changes":[3.2820562E4,0E0,4.670996E1,2.2736816E0,0E0,6.9213715E0,1.3359375E0,4.9142647E-1,0E0,3.1347656E0,2.7630005E0,0E0,0E0,0E0,2.1462402E0,4.1880217E0,2.8607788E0,0E0,0E0,0E0,0E0,0E0,0E0],"parents":[2147483647,0,0,2,2,3,3,5,5,6,6,7,7,9,9,10,10,14,14,15,15,16,16],"right_children":[2,-1,4,6,-1,8,10,12,-1,14,16,-1,-1,-1,18,20,22,-1,-1,-1,-1,-1,-1],"split_conditions":[1.645836E-1,-5.2821994E-2,1.7547724E-1,2.7390523E-3,5.278918E-2,1.4644662E-1,7.3205084E-1,4.3537807E-1,-1.3940327E-2,1.7037086E-2,1.0515247E-3,5.008331E-2,2.4687728E-2,8.834518E-3,6.510989E-1,1E0,1E0,4.5624804E-2,4.9071178E-2,-9.93618E-3,4.557046E-2,4.5067154E-2,1.8331066E-2],"split_indices":[49,0,49,12,0,14,17,2,0,13,43,0,0,0,1,13,14,0,0,0,0,0,0],"split_type":[0,0,0,0,0,0,0,0,0,0,0,0,0,0,0,0,0,0,0,0,0,0,0],"sum_hessian":[3.0323783E4,1.4920782E4,1.5403001E4,3.7135955E3,1.1689406E4,2.5748718E1,3.6878467E3,1.9279259E1,6.4694605E0,2.571546E3,1.1163008E3,1.3197678E1,6.0815806E0,5.8308034E0,2.565715E3,1.2013277E1,1.1042875E3,1.3568364E3,1.2088788E3,6.166115E0,5.8471627E0,1.0923259E3,1.1961601E1],"tree_param":{"num_deleted":"0","num_feature":"51","num_nodes":"23","size_leaf_vector":"1"}},{"base_weights":[4.835487E-3,-5.267727E-2,1.0203525E0,9.1811633E-1,5.2645624E-2,8.8343734E-1,9.355036E-1,8.9132684E-1,-8.7605156E-2,9.3848073E-1,6.793201E-1,8.944409E-1,1.3858852E-2,9.557872E-1,8.9092445E-1,9.058542E-1,-9.505516E-3,3.6326073E-2,4.5362633E-2,1.2863559E-2,4.791442E-2,3.2281145E-2,4.6005066E-2,5.0832864E-2,2.2757474E-2],"categories":[],"categories_nodes":[],"categories_segments":[],"categories_sizes":[],"default_left":[0,0,0,0,0,0,0,0,0,0,0,0,0,0,0,0,0,0,0,0,0,0,0,0,0],"id":46,"left_children":[1,-1,3,5,-1,7,9,11,-1,13,15,17,-1,19,21,23,-1,-1,-1,-1,-1,-1,-1,-1,-1],"loss_changes":[3.1257074E4,0E0,4.8436523E1,1.3400879E0,0E0,2.6882385E1,1.1745605E0,2.0753784E0,0E0,1.0795898E0,6.2612133E0,1.9401245E0,0E0,2.7347412E0,3.9915466E0,7.707176E-1,0E0,0E0,0E0,0E0,0E0,0E0,0E0,0E0,0E0],"parents":[2147483647,0,0,2,2,3,3,5,5,6,6,7,7,9,9,10,10,11,11,13,13,14,14,15,15],"right_children":[2,-1,4,6,-1,8,10,12,-1,14,16,18,-1,20,22,24,-1,-1,-1,-1,-1,-1,-1,-1,-1],"split_conditions":[1.645836E-1,-5.267727E-2,1.7547724E-1,3.791209E-1,5.2645624E-2,2.935415E-2,6.1290324E-1,6.8654644E-1,-8.7605156E-2,7.3205084E-1,7.938926E-1,2.2432527E-3,1.3858852E-2,2.7390523E-3,1.2842758E-1,5.522642E-1,-9.505516E-3,3.6326073E-2,4.5362633E-2,1.2863559E-2,4.791442E-2,3.2281145E-2,4.6005066E-2,5.0832864E-2,2.2757474E-2],"split_indices":[49,0,49,1,0,50,0,45,0,17,10,43,0,12,11,11,0,0,0,0,0,0,0,0,0],"split_type":[0,0,0,0,0,0,0,0,0,0,0,0,0,0,0,0,0,0,0,0,0,0,0,0,0],"sum_hessian":[2.9079658E4,1.4239298E4,1.484036E4,3.5917405E3,1.124862E4,1.2167478E3,2.3749927E3,1.2137762E3,2.9716506E0,2.3450771E3,2.99156E1,1.2071987E3,6.577507E0,1.70537E3,6.397071E2,2.3698858E1,6.2167416E0,8.966669E1,1.117532E3,6.4551373E0,1.6989148E3,7.0458984E1,5.692481E2,1.8014418E1,5.684441E0],"tree_param":{"num_deleted":"0","num_feature":"51","num_nodes":"25","size_leaf_vector":"1"}},{"base_weights":[4.582635E-3,-5.253881E-2,1.0159466E0,9.132285E-1,5.250916E-2,9.1509676E-1,5.0425524E-1,9.295341E-1,8.7578094E-1,-1.4016496E-2,4.498975E-2,5.5973166E-1,9.3203104E-1,4.0158752E-1,8.832675E-1,4.5840528E-2,-8.4299445E-3,2.0803938E-2,4.6647277E-2,-3.133031E-2,4.8221853E-2,4.4591952E-2,2.5429232E-2],"categories":[],"categories_nodes":[],"categories_segments":[],"categories_sizes":[],"default_left":[0,0,0,0,0,0,0,0,0,0,0,0,0,0,0,0,0,0,0,0,0,0,0],"id":47,"left_children":[1,-1,3,5,-1,7,9,11,13,-1,-1,15,17,19,21,-1,-1,-1,-1,-1,-1,-1,-1],"loss_changes":[2.9611508E4,0E0,4.886133E1,2.2504883E0,0E0,1.1904297E0,5.952106E0,1.848877E0,3.0742188E0,0E0,0E0,5.2829986E0,8.1396484E-1,1.0353372E1,2.5975342E0,0E0,0E0,0E0,0E0,0E0,0E0,0E0,0E0],"parents":[2147483647,0,0,2,2,3,3,5,5,6,6,7,7,8,8,11,11,12,12,13,13,14,14],"right_children":[2,-1,4,6,-1,8,10,12,14,-1,-1,16,18,20,22,-1,-1,-1,-1,-1,-1,-1,-1],"split_conditions":[1.645836E-1,-5.253881E-2,1.7547724E-1,1E0,5.250916E-2,1E0,1E0,2.7390523E-3,1.7037086E-2,-1.4016496E-2,4.498975E-2,1.4644662E-1,8.30081E-3,4.8203793E-1,1E0,4.5840528E-2,-8.4299445E-3,2.0803938E-2,4.6647277E-2,-3.133031E-2,4.8221853E-2,4.4591952E-2,2.5429232E-2],"split_indices":[49,0,49,47,0,25,20,12,14,0,0,14,4,4,15,0,0,0,0,0,0,0,0],"split_type":[0,0,0,0,0,0,0,0,0,0,0,0,0,0,0,0,0,0,0,0,0,0,0],"sum_hessian":[2.7740967E4,1.3575201E4,1.4165767E4,3.5481406E3,1.0617626E4,3.5307737E3,1.7366838E1,2.5658977E3,9.6487604E2,5.918429E0,1.144841E1,1.8719296E1,2.5471782E3,1.5845932E1,9.490301E2,1.2387359E1,6.3319373E0,5.3133316E0,2.541865E3,5.5656056E0,1.0280327E1,9.264557E2,2.2574427E1],"tree_param":{"num_deleted":"0","num_feature":"51","num_nodes":"23","size_leaf_vector":"1"}},{"base_weights":[-1.5972683E-3,-5.2409172E-2,1.0123867E0,9.059843E-1,5.238033E-2,8.7650293E-1,9.3071264E-1,8.9600146E-1,7.723639E-1,9.3281007E-1,1.4565167E-2,8.817052E-1,9.799346E-1,8.112035E-1,-4.1560646E-2,9.066968E-1,9.74908E-1,4.5867212E-2,4.1243266E-2,4.946522E-2,2.7292235E-2,4.19552E-2,-1.7843766E-2,3.209269E-2,4.626075E-2,4.9543854E-2,4.281133E-2],"categories":[],"categories_nodes":[],"categories_segments":[],"categories_sizes":[],"default_left":[0,0,0,0,0,0,0,0,0,0,0,0,0,0,0,0,0,0,0,0,0,0,0,0,0,0,0],"id":48,"left_children":[1,-1,3,5,-1,7,9,11,13,15,-1,17,19,21,-1,23,25,-1,-1,-1,-1,-1,-1,-1,-1,-1,-1],"loss_changes":[2.790075E4,0E0,4.9091797E1,1.6108398E0,0E0,2.4257812E0,2.1341553E0,6.8029785E-1,1.6206955E1,1.0812988E0,0E0,1.4912109E0,1.8534851E-1,8.251373E0,0E0,4.886963E0,4.2333984E-1,0E0,0E0,0E0,0E0,0E0,0E0,0E0,0E0,0E0,0E0],"parents":[2147483647,0,0,2,2,3,3,5,5,6,6,7,7,8,8,9,9,11,11,12,12,13,13,15,15,16,16],"right_children":[2,-1,4,6,-1,8,10,12,14,16,-1,18,20,22,-1,24,26,-1,-1,-1,-1,-1,-1,-1,-1,-1,-1],"split_conditions":[1.645836E-1,-5.2409172E-2,1.7547724E-1,1E0,5.238033E-2,9.330127E-1,1E0,1E0,1E0,1E0,1.4565167E-2,-3.5460503E-3,5.322581E-1,6.6074896E-1,-4.1560646E-2,1.1263736E-1,2.631226E-2,4.5867212E-2,4.1243266E-2,4.946522E-2,2.7292235E-2,4.19552E-2,-1.7843766E-2,3.209269E-2,4.626075E-2,4.9543854E-2,4.281133E-2],"split_indices":[49,0,49,23,0,12,47,38,16,29,0,50,0,45,0,1,50,0,0,0,0,0,0,0,0,0,0],"split_type":[0,0,0,0,0,0,0,0,0,0,0,0,0,0,0,0,0,0,0,0,0,0,0,0,0,0,0],"sum_hessian":[2.6289162E4,1.2936592E4,1.3352571E4,3.3272878E3,1.0025284E4,1.5344056E3,1.7928822E3,1.2860143E3,2.4839131E2,1.7865629E3,6.3192816E0,1.1086792E3,1.7733513E2,2.4299983E2,5.3914695E0,1.1165222E3,6.700406E2,6.721177E2,4.3656146E2,1.7233621E2,4.9989166E0,2.3760608E2,5.39376E0,7.529754E1,1.0412247E3,5.840986E2,8.594206E1],"tree_param":{"num_deleted":"0","num_feature":"51","num_nodes":"27","size_leaf_vector":"1"}},{"base_weights":[2.9751905E-3,-5.228574E-2,1.0078152E0,8.955184E-1,5.2259397E-2,8.5677224E-1,9.1508967E-1,8.6487454E-1,-8.669533E-2,9.314241E-1,8.706454E-1,6.4140284E-1,8.7896234E-1,9.358981E-3,9.3416756E-1,8.89335E-1,4.9008235E-1,4.2858385E-2,-2.2730665E-2,4.497155E-2,3.7877116E-2,4.6892818E-2,2.9461203E-2,4.9437534E-2,4.0828306E-2,-4.262204E-2,4.268375E-2],"categories":[],"categories_nodes":[],"categories_segments":[],"categories_sizes":[],"default_left":[0,0,0,0,0,0,0,0,0,0,0,0,0,0,0,0,0,0,0,0,0,0,0,0,0,0,0],"id":49,"left_children":[1,-1,3,5,-1,7,9,11,-1,13,15,17,19,-1,21,23,25,-1,-1,-1,-1,-1,-1,-1,-1,-1,-1],"loss_changes":[2.6574578E4,0E0,5.311328E1,1.6599121E0,0E0,2.4531555E1,7.330322E-1,2.881958E0,0E0,2.9709473E0,3.738037E0,1.6613743E1,1.8707275E0,0E0,1.4002686E0,3.2303467E0,1.5224268E1,0E0,0E0,0E0,0E0,0E0,0E0,0E0,0E0,0E0,0E0],"parents":[2147483647,0,0,2,2,3,3,5,5,6,6,7,7,9,9,10,10,11,11,12,12,14,14,15,15,16,16],"right_children":[2,-1,4,6,-1,8,10,12,-1,14,16,18,20,-1,22,24,26,-1,-1,-1,-1,-1,-1,-1,-1,-1,-1],"split_conditions":[1.645836E-1,-5.228574E-2,1.7547724E-1,3.791209E-1,5.2259397E-2,2.859597E-2,7.3205084E-1,2.2432527E-3,-8.669533E-2,2.7390523E-3,2.5539244E-2,3.0104536E-1,1E0,9.358981E-3,6.1290324E-1,3.454915E-1,3.5585824E-1,4.2858385E-2,-2.2730665E-2,4.497155E-2,3.7877116E-2,4.6892818E-2,2.9461203E-2,4.9437534E-2,4.0828306E-2,-4.262204E-2,4.268375E-2],"split_indices":[49,0,49,1,0,50,17,44,0,12,50,2,30,0,0,9,4,0,0,0,0,0,0,0,0,0,0],"split_type":[0,0,0,0,0,0,0,0,0,0,0,0,0,0,0,0,0,0,0,0,0,0,0,0,0,0,0],"sum_hessian":[2.521668E4,1.2339088E4,1.2877591E4,3.2217842E3,9.655807E3,1.0962517E3,2.1255325E3,1.0934979E3,2.7537463E0,1.5396971E3,5.858352E2,6.760599E1,1.025892E3,5.909165E0,1.533788E3,5.5713715E2,2.8698063E1,5.666807E1,1.0937912E1,8.7241455E2,1.5347739E2,1.515859E3,1.7929E1,2.3013824E2,3.2699893E2,5.8293557E0,2.2868706E1],"tree_param":{"num_deleted":"0","num_feature":"51","num_nodes":"27","size_leaf_vector":"1"}},{"base_weights":[4.614504E-3,-5.2169092E-2,1.0033623E0,8.8769305E-1,5.2143157E-2,8.290092E-1,9.0097135E-1,8.4610724E-1,-1.3585073E-1,9.0220773E-1,1.3188909E-2,4.8001264E-3,8.527268E-1,9.2107594E-1,8.539894E-1,3.87638E-2,4.6214532E-2,-4.4795824E-3,4.6222907E-2,4.4357207E-2,3.0743364E-2],"categories":[],"categories_nodes":[],"categories_segments":[],"categories_sizes":[],"default_left":[0,0,0,0,0,0,0,0,0,0,0,0,0,0,0,0,0,0,0,0,0],"id":50,"left_children":[1,-1,3,5,-1,7,9,11,-1,13,-1,-1,15,17,19,-1,-1,-1,-1,-1,-1],"loss_changes":[2.5243008E4,0E0,5.549707E1,1.7080078E0,0E0,3.8301178E1,1.7766113E0,2.8562317E0,0E0,1.5354004E0,0E0,0E0,2.5336914E0,6.3095703E0,5.2540283E0,0E0,0E0,0E0,0E0,0E0,0E0],"parents":[2147483647,0,0,2,2,3,3,5,5,6,6,7,7,9,9,12,12,13,13,14,14],"right_children":[2,-1,4,6,-1,8,10,12,-1,14,-1,-1,16,18,20,-1,-1,-1,-1,-1,-1],"split_conditions":[1.645836E-1,-5.2169092E-2,1.7547724E-1,2.0604396E-1,5.2143157E-2,2.0092852E-2,6.966437E-1,5.9720054E-2,-1.3585073E-1,7.3205084E-1,1.3188909E-2,4.8001264E-3,2.1359224E-2,2.7390523E-3,9.330127E-1,3.87638E-2,4.6214532E-2,-4.4795824E-3,4.6222907E-2,4.4357207E-2,3.0743364E-2],"split_indices":[49,0,49,1,0,50,2,2,0,17,0,0,46,12,9,0,0,0,0,0,0],"split_type":[0,0,0,0,0,0,0,0,0,0,0,0,0,0,0,0,0,0,0,0,0],"sum_hessian":[2.4115125E4,1.1767413E4,1.2347712E4,3.149272E3,9.198439E3,5.92801E2,2.556471E3,5.907142E2,2.0868928E0,2.5511052E3,5.3658185E0,5.3029604E0,5.854112E2,1.82059E3,7.305152E2,2.8682474E2,2.9858646E2,5.9873095E0,1.8146027E3,6.3918164E2,9.1333534E1],"tree_param":{"num_deleted":"0","num_feature":"51","num_nodes":"21","size_leaf_vector":"1"}},{"base_weights":[-1.1619873E-3,-5.2058626E-2,9.9888825E-1,8.780678E-1,5.2032996E-2,8.405341E-1,9.013885E-1,8.4619015E-1,-1.7697762E-1,9.0554196E-1,3.841662E-1,4.6152235E-3,8.495579E-1,4.3999594E-2,-1.4377691E-1,7.923912E-1,9.167774E-1,-2.7151441E-2,8.017485E-1,3.6169533E-2,4.3729346E-2,4.1346915E-2,-1.7644038E-2,4.5940343E-2,9.3770465E-3,2.3533901E-2,4.649293E-2],"categories":[],"categories_nodes":[],"categories_segments":[],"categories_sizes":[],"default_left":[0,0,0,0,0,0,0,0,0,0,0,0,0,0,0,0,0,0,0,0,0,0,0,0,0,0,0],"id":51,"left_children":[1,-1,3,5,-1,7,9,11,13,15,17,-1,19,-1,-1,21,23,-1,25,-1,-1,-1,-1,-1,-1,-1,-1],"loss_changes":[2.3807887E4,0E0,5.798242E1,1.8723145E0,0E0,6.861328E0,3.6033936E0,2.866394E0,2.327714E1,1.5921631E0,6.7808895E0,0E0,3.0134277E0,0E0,0E0,7.101692E0,2.2739258E0,0E0,5.872965E-2,0E0,0E0,0E0,0E0,0E0,0E0,0E0,0E0],"parents":[2147483647,0,0,2,2,3,3,5,5,6,6,7,7,8,8,9,9,10,10,12,12,15,15,16,16,18,18],"right_children":[2,-1,4,6,-1,8,10,12,14,16,18,-1,20,-1,-1,22,24,-1,26,-1,-1,-1,-1,-1,-1,-1,-1],"split_conditions":[1.645836E-1,-5.2058626E-2,1.7547724E-1,4.3681318E-1,5.2032996E-2,6.8654644E-1,6.1290324E-1,5.9720054E-2,6.451613E-2,6.69873E-2,7.033683E-1,4.6152235E-3,3.0143708E-3,4.3999594E-2,-1.4377691E-1,9.890738E-1,6.7777056E-1,-2.7151441E-2,7.096774E-1,3.6169533E-2,4.3729346E-2,4.1346915E-2,-1.7644038E-2,4.5940343E-2,9.3770465E-3,2.3533901E-2,4.649293E-2],"split_indices":[49,0,49,1,0,45,0,2,0,10,9,0,44,0,0,11,2,0,0,0,0,0,0,0,0,0,0],"split_type":[0,0,0,0,0,0,0,0,0,0,0,0,0,0,0,0,0,0,0,0,0,0,0,0,0,0,0],"sum_hessian":[2.2888818E4,1.1220219E4,1.1668601E4,3.0034478E3,8.665152E3,1.1651803E3,1.8382675E3,1.1589066E3,6.27368E0,1.8228784E3,1.538905E1,5.2802916E0,1.1536263E3,4.9922314E0,1.2814488E0,1.7111536E2,1.6517631E3,4.685347E0,1.0703703E1,1.9592181E2,9.5770447E2,1.6637463E2,4.7407312E0,1.6469196E3,4.8434477E0,4.2903376E0,6.4133654E0],"tree_param":{"num_deleted":"0","num_feature":"51","num_nodes":"27","size_leaf_vector":"1"}},{"base_weights":[3.1499441E-3,-5.1953882E-2,9.953179E-1,8.7006766E-1,5.193023E-2,7.7895755E-1,8.783896E-1,-2.5070375E-1,8.2180697E-1,7.146245E-1,8.83002E-1,-5.5720985E-2,3.4827195E-2,8.791986E-1,4.1433963E-1,8.6975926E-1,-5.9877552E-2,8.9836174E-1,8.37512E-1,4.5000676E-2,-5.131702E-3,-2.7065638E-2,4.308767E-2,-3.8599316E-3,4.659558E-2,4.2275082E-2,4.5769393E-2,4.2195346E-2,1.6004927E-2],"categories":[],"categories_nodes":[],"categories_segments":[],"categories_sizes":[],"default_left":[0,0,0,0,0,0,0,0,0,0,0,0,0,0,0,0,0,0,0,0,0,0,0,0,0,0,0,0,0],"id":52,"left_children":[1,-1,3,5,-1,7,9,11,13,15,17,-1,-1,19,21,23,-1,25,27,-1,-1,-1,-1,-1,-1,-1,-1,-1,-1],"loss_changes":[2.2676729E4,0E0,6.0007812E1,1.5083008E0,0E0,1.1273666E1,1.3642578E0,9.602762E0,5.2730103E0,2.4064571E1,1.0401611E0,0E0,0E0,4.392456E0,1.4000408E1,4.3311157E0,0E0,9.395752E-1,1.9211731E0,0E0,0E0,0E0,0E0,0E0,0E0,0E0,0E0,0E0,0E0],"parents":[2147483647,0,0,2,2,3,3,5,5,6,6,7,7,8,8,9,9,10,10,13,13,14,14,15,15,17,17,18,18],"right_children":[2,-1,4,6,-1,8,10,12,14,16,18,-1,-1,20,22,24,-1,26,28,-1,-1,-1,-1,-1,-1,-1,-1,-1,-1],"split_conditions":[1.645836E-1,-5.1953882E-2,1.7547724E-1,2.4535577E-3,5.193023E-2,6.593407E-2,1.09262E-2,7.2252095E-1,1E0,4.4947246E-1,1E0,-5.5720985E-2,3.4827195E-2,9.5604396E-1,5.796703E-1,2.5E-1,-5.9877552E-2,2.7747253E-1,6.263572E-1,4.5000676E-2,-5.131702E-3,-2.7065638E-2,4.308767E-2,-3.8599316E-3,4.659558E-2,4.2275082E-2,4.5769393E-2,4.2195346E-2,1.6004927E-2],"split_indices":[49,0,49,43,0,1,12,15,21,4,25,0,0,1,1,3,0,1,2,0,0,0,0,0,0,0,0,0,0],"split_type":[0,0,0,0,0,0,0,0,0,0,0,0,0,0,0,0,0,0,0,0,0,0,0,0,0,0,0,0,0],"sum_hessian":[2.1927697E4,1.0694042E4,1.1233654E4,2.8906497E3,8.343005E3,2.4985094E2,2.6407986E3,9.788349E0,2.4006259E2,7.66113E1,2.5641873E3,5.02761E0,4.7607393E0,2.0940959E2,3.0652992E1,7.1366486E1,5.2448144E0,1.9029163E3,6.61271E2,2.0514388E2,4.2657213E0,9.707788E0,2.0945204E1,4.3806367E0,6.698585E1,4.7594232E2,1.426974E3,6.525746E2,8.696413E0],"tree_param":{"num_deleted":"0","num_feature":"51","num_nodes":"29","size_leaf_vector":"1"}},{"base_weights":[-1.2727936E-3,-5.185441E-2,9.912436E-1,8.6177224E-1,5.183173E-2,5.468547E-1,8.644125E-1,8.5413074E-1,-2.544407E-2,8.8461137E-1,8.1767833E-1,4.9428683E-2,1.5707677E-2,-4.968986E-3,8.868854E-1,6.653569E-1,8.4719634E-1,4.443143E-2,8.229278E-3,3.8705137E-2,6.0682534E-4,4.3596964E-2,3.3923313E-2],"categories":[],"categories_nodes":[],"categories_segments":[],"categories_sizes":[],"default_left":[0,0,0,0,0,0,0,0,0,0,0,0,0,0,0,0,0,0,0,0,0,0,0],"id":53,"left_children":[1,-1,3,5,-1,7,9,11,-1,13,15,-1,-1,-1,17,19,21,-1,-1,-1,-1,-1,-1],"loss_changes":[2.1393377E4,0E0,6.155957E1,1.8256836E0,0E0,8.773781E0,1.862915E0,1.1620007E0,0E0,4.3411865E0,3.2132568E0,0E0,0E0,0E0,2.2415771E0,1.0007793E1,2.33078E0,0E0,0E0,0E0,0E0,0E0,0E0],"parents":[2147483647,0,0,2,2,3,3,5,5,6,6,7,7,9,9,10,10,14,14,15,15,16,16],"right_children":[2,-1,4,6,-1,8,10,12,-1,14,16,-1,-1,-1,18,20,22,-1,-1,-1,-1,-1,-1],"split_conditions":[1.645836E-1,-5.185441E-2,1.7547724E-1,2.7390523E-3,5.183173E-2,2.5E-1,7.3205084E-1,3.862245E-1,-2.544407E-2,2.7390523E-3,3.2246758E-3,4.9428683E-2,1.5707677E-2,-4.968986E-3,1E0,4.1935483E-1,9.330127E-1,4.443143E-2,8.229278E-3,3.8705137E-2,6.0682534E-4,4.3596964E-2,3.3923313E-2],"split_indices":[49,0,49,12,0,14,17,4,0,11,44,0,0,0,47,0,9,0,0,0,0,0,0],"split_type":[0,0,0,0,0,0,0,0,0,0,0,0,0,0,0,0,0,0,0,0,0,0,0],"sum_hessian":[2.080739E4,1.0181585E4,1.0625806E4,2.7634453E3,7.86236E3,2.4706131E1,2.7387393E3,1.9284319E1,5.4218135E0,1.8997311E3,8.390081E2,1.4774908E1,4.50941E0,4.281707E0,1.8954495E3,1.4001765E2,6.989904E2,1.8906564E3,4.7930765E0,1.1987605E2,2.01416E1,6.05963E2,9.3027435E1],"tree_param":{"num_deleted":"0","num_feature":"51","num_nodes":"23","size_leaf_vector":"1"}},{"base_weights":[-8.20607E-4,-5.176067E-2,9.868179E-1,8.495264E-1,5.1738303E-2,8.516378E-1,5.1025057E-1,8.19525E-1,8.788374E-1,-2.0921564E-2,8.3574265E-1,8.229076E-1,-8.009787E-3,7.0828503E-1,8.893276E-1,4.7455348E-2,2.2020329E-2,4.2087164E-2,3.46467E-2,3.938886E-2,-3.180488E-2,3.9391827E-2,4.5267724E-2],"categories":[],"categories_nodes":[],"categories_segments":[],"categories_sizes":[],"default_left":[0,0,0,0,0,0,0,0,0,0,0,0,0,0,0,0,0,0,0,0,0,0,0],"id":54,"left_children":[1,-1,3,5,-1,7,9,11,13,-1,15,17,-1,19,21,-1,-1,-1,-1,-1,-1,-1,-1],"loss_changes":[2.032135E4,0E0,6.6106445E1,1.4562988E0,0E0,1.5695801E0,6.0383773E0,4.1654053E0,1.8850098E0,0E0,2.2149372E-1,2.3864136E0,0E0,9.729988E0,1.4342041E0,0E0,0E0,0E0,0E0,0E0,0E0,0E0,0E0],"parents":[2147483647,0,0,2,2,3,3,5,5,6,6,7,7,8,8,10,10,11,11,13,13,14,14],"right_children":[2,-1,4,6,-1,8,10,12,14,-1,16,18,-1,20,22,-1,-1,-1,-1,-1,-1,-1,-1],"split_conditions":[1.645836E-1,-5.176067E-2,1.7547724E-1,1E0,5.1738303E-2,1E0,3.8709676E-1,6.966437E-1,7.692308E-2,-2.0921564E-2,1.7582418E-1,9.5677274E-1,-8.009787E-3,6.5492374E-1,1.2842758E-1,4.7455348E-2,2.2020329E-2,4.2087164E-2,3.46467E-2,3.938886E-2,-3.180488E-2,3.9391827E-2,4.5267724E-2],"split_indices":[49,0,49,47,0,23,0,2,1,0,1,12,0,45,10,0,0,0,0,0,0,0,0],"split_type":[0,0,0,0,0,0,0,0,0,0,0,0,0,0,0,0,0,0,0,0,0,0,0],"sum_hessian":[1.9889568E4,9.714813E3,1.0174756E4,2.638517E3,7.5362383E3,2.6206978E3,1.7819315E1,1.2160834E3,1.4046145E3,4.5504913E0,1.3268825E1,1.2120586E3,4.024754E0,8.535785E1,1.3192566E3,9.223257E0,4.045567E0,1.053859E3,1.5819962E2,8.098339E1,4.374456E0,1.8675766E2,1.1324989E3],"tree_param":{"num_deleted":"0","num_feature":"51","num_nodes":"23","size_leaf_vector":"1"}},{"base_weights":[5.507718E-3,-5.1671106E-2,9.822536E-1,8.431951E-1,5.164959E-2,8.265067E-1,9.1312706E-1,8.35282E-1,4.7539422E-1,9.2855394E-1,6.34488E-1,7.9863256E-1,8.7147367E-1,-1.1984905E-1,6.100379E-1,9.3613315E-1,2.3525322E-3,-3.0846257E-2,8.481072E-1,4.277345E-2,3.528948E-2,3.8026746E-2,4.4610173E-2,-4.5898702E-2,3.7904706E-2,1.0714239E-2,4.708682E-2,1.9544296E-2,4.5377452E-2],"categories":[],"categories_nodes":[],"categories_segments":[],"categories_sizes":[],"default_left":[0,0,0,0,0,0,0,0,0,0,0,0,0,0,0,0,0,0,0,0,0,0,0,0,0,0,0,0,0],"id":55,"left_children":[1,-1,3,5,-1,7,9,11,13,15,17,19,21,-1,23,25,-1,-1,27,-1,-1,-1,-1,-1,-1,-1,-1,-1,-1],"loss_changes":[1.9387352E4,0E0,6.860742E1,2.3237305E0,0E0,6.1972656E0,1.5544128E0,2.0718994E0,2.2542734E1,3.0984497E0,8.360864E0,4.93042E0,1.7106934E0,0E0,1.2655334E1,1.6842651E0,0E0,0E0,3.3733368E-1,0E0,0E0,0E0,0E0,0E0,0E0,0E0,0E0,0E0,0E0],"parents":[2147483647,0,0,2,2,3,3,5,5,6,6,7,7,8,8,9,9,10,10,11,11,12,12,14,14,15,15,18,18],"right_children":[2,-1,4,6,-1,8,10,12,14,16,18,20,22,-1,24,26,-1,-1,28,-1,-1,-1,-1,-1,-1,-1,-1,-1,-1],"split_conditions":[1.645836E-1,-5.1671106E-2,1.7547724E-1,1E0,5.164959E-2,2.631226E-2,9.890738E-1,1E0,2.7747253E-1,5.967742E-1,7.033683E-1,-3.5460503E-3,1.2842758E-1,-1.1984905E-1,7.5E-1,-3.5460503E-3,2.3525322E-3,-3.0846257E-2,7.5E-1,4.277345E-2,3.528948E-2,3.8026746E-2,4.4610173E-2,-4.5898702E-2,3.7904706E-2,1.0714239E-2,4.708682E-2,1.9544296E-2,4.5377452E-2],"split_indices":[49,0,49,32,0,50,12,23,1,0,10,50,12,0,13,50,0,0,13,0,0,0,0,0,0,0,0,0,0],"split_type":[0,0,0,0,0,0,0,0,0,0,0,0,0,0,0,0,0,0,0,0,0,0,0,0,0,0,0,0,0],"sum_hessian":[1.910316E4,9.256884E3,9.846275E3,2.6369038E3,7.209372E3,2.1392244E3,4.9767963E2,2.085717E3,5.3507137E1,4.6936093E2,2.831869E1,1.0477656E3,1.0379514E3,1.6435087E0,5.186363E1,4.652983E2,4.062625E0,3.8539162E0,2.4464773E1,6.448119E2,4.029538E2,1.693478E2,8.686037E2,4.122036E0,4.7741592E1,3.8862526E0,4.6141205E2,3.6862667E0,2.0778507E1],"tree_param":{"num_deleted":"0","num_feature":"51","num_nodes":"29","size_leaf_vector":"1"}},{"base_weights":[-4.7480618E-3,7.345659E-1,-9.7701305E-1,7.813134E-1,-9.3507105E-1,-4.567164E-1,-1.0245634E0,4.3776834E-1,8.9225113E-1,-6.1779857E-1,-5.1270384E-2,5.1002722E-2,-8.046058E-1,-1.0273162E0,-7.4972004E-1,6.3564926E-1,-4.891416E-1,9.497463E-1,7.521505E-1,-5.0233852E-2,2.6965134E-2,3.6228588E-1,-8.186987E-1,-5.1733155E-2,-4.8649323E-1,-8.126905E-1,-1.0283507E0,-1.6174707E-1,-5.0681736E-2,7.176751E-1,-4.793993E-1,-2.7852273E-2,-8.707269E-1,9.989255E-1,8.953691E-1,8.1340915E-1,2.464825E-1,-4.5828145E-2,5.2162886E-1,5.7447433E-1,-8.475988E-1,-8.9976346E-1,2.2715954E-2,-5.1598758E-2,-1.4507504E-1,6.570121E-2,-4.9934074E-2,-9.527181E-1,-5.1530104E-2,-4.7040757E-2,4.9279454E-1,4.3599058E-2,2.2121912E-2,2.6627496E-2,-3.7803613E-2,-2.933446E-2,1.538457E-2,-4.9449276E-2,8.670798E-3,4.772796E-2,5.0444167E-2,4.5836166E-2,2.021095E-2,4.550456E-2,3.360205E-2,3.0192316E-2,-3.0750835E-2,-3.6809113E-2,3.928083E-2,-5.1055837E-2,3.224689E-2,-5.308109E-2,3.170043E-2,-5.2144617E-2,-1.1707965E-2,1.670873E-2,-3.857342E-2,-3.7659504E-2,3.2992363E-2,-5.127622E-2,-9.817193E-3,-3.5613555E-2,3.9240334E-2],"categories":[],"categories_nodes":[],"categories_segments":[],"categories_sizes":[],"default_left":[0,0,0,0,0,0,0,0,0,0,0,0,0,0,0,0,0,0,0,0,0,0,0,0,0,0,0,0,0,0,0,0,0,0,0,0,0,0,0,0,0,0,0,0,0,0,0,0,0,0,0,0,0,0,0,0,0,0,0,0,0,0,0,0,0,0,0,0,0,0,0,0,0,0,0,0,0,0,0,0,0,0,0],"id":56,"left_children":[1,3,5,7,9,11,13,15,17,19,-1,21,23,25,27,29,31,33,35,-1,37,39,41,-1,43,45,47,49,-1,51,53,55,57,59,61,63,65,-1,67,69,71,73,-1,-1,75,77,-1,79,-1,-1,81,-1,-1,-1,-1,-1,-1,-1,-1,-1,-1,-1,-1,-1,-1,-1,-1,-1,-1,-1,-1,-1,-1,-1,-1,-1,-1,-1,-1,-1,-1,-1,-1],"loss_changes":[1.297967E4,8.013369E2,1.9250098E2,3.7991406E2,7.386734E0,1.1572354E2,4.6367188E0,4.47429E2,6.003662E1,1.6124409E1,0E0,7.2644485E1,2.7943527E1,7.338867E-1,1.1406132E1,1.8411829E2,7.5563225E1,1.339502E1,6.792615E1,0E0,1.2227699E1,5.1188194E1,7.7094917E0,0E0,3.0583088E1,6.386738E0,2.163086E-1,1.2849413E1,0E0,7.9119385E1,3.9117912E1,3.6828426E1,2.9186798E1,2.7294922E-1,2.6346313E1,2.6193848E1,7.397579E1,0E0,6.2739425E0,1.9616833E1,1.0145468E1,6.1239967E0,0E0,0E0,3.1075514E1,4.2429824E0,0E0,1.1725891E1,0E0,0E0,5.4347277E0,0E0,0E0,0E0,0E0,0E0,0E0,0E0,0E0,0E0,0E0,0E0,0E0,0E0,0E0,0E0,0E0,0E0,0E0,0E0,0E0,0E0,0E0,0E0,0E0,0E0,0E0,0E0,0E0,0E0,0E0,0E0,0E0],"parents":[2147483647,0,0,1,1,2,2,3,3,4,4,5,5,6,6,7,7,8,8,9,9,11,11,12,12,13,13,14,14,15,15,16,16,17,17,18,18,20,20,21,21,22,22,24,24,25,25,26,26,27,27,29,29,30,30,31,31,32,32,33,33,34,34,35,35,36,36,38,38,39,39,40,40,41,41,44,44,45,45,47,47,50,50],"right_children":[2,4,6,8,10,12,14,16,18,20,-1,22,24,26,28,30,32,34,36,-1,38,40,42,-1,44,46,48,50,-1,52,54,56,58,60,62,64,66,-1,68,70,72,74,-1,-1,76,78,-1,80,-1,-1,82,-1,-1,-1,-1,-1,-1,-1,-1,-1,-1,-1,-1,-1,-1,-1,-1,-1,-1,-1,-1,-1,-1,-1,-1,-1,-1,-1,-1,-1,-1,-1,-1],"split_conditions":[2.859597E-2,6.901526E-1,3.7485793E-2,1E0,1.2788131E-2,3.3333334E-1,1E0,7.3205084E-1,7.3205084E-1,7.5E-1,-5.1270384E-2,7.3205084E-1,1E0,3.813301E-2,1.4644662E-1,1E0,6.972092E-3,-3.5460503E-3,1E0,-5.0233852E-2,8.345653E-1,1.7350158E-1,9.8626375E-1,-5.1733155E-2,5.2747256E-1,2.4471741E-2,8.9748666E-2,1E0,-5.0681736E-2,3.3333334E-1,-6.137516E-3,1E0,1E0,1E0,1E0,-1.1947993E-3,2.488921E-3,-4.5828145E-2,1E0,2.2562866E-1,1E0,9.7552824E-1,2.2715954E-2,-5.1598758E-2,1.6677181E-1,1E0,-4.9934074E-2,5.483871E-1,-5.1530104E-2,-4.7040757E-2,1E0,4.3599058E-2,2.2121912E-2,2.6627496E-2,-3.7803613E-2,-2.933446E-2,1.538457E-2,-4.9449276E-2,8.670798E-3,4.772796E-2,5.0444167E-2,4.5836166E-2,2.021095E-2,4.550456E-2,3.360205E-2,3.0192316E-2,-3.0750835E-2,-3.6809113E-2,3.928083E-2,-5.1055837E-2,3.224689E-2,-5.308109E-2,3.170043E-2,-5.2144617E-2,-1.1707965E-2,1.670873E-2,-3.857342E-2,-3.7659504E-2,3.2992363E-2,-5.127622E-2,-9.817193E-3,-3.5613555E-2,3.9240334E-2],"split_indices":[50,45,50,8,50,7,47,17,17,1,0,17,23,50,13,24,50,50,24,0,9,43,1,0,1,11,2,21,0,7,50,23,13,31,33,50,50,0,23,2,11,9,0,0,43,29,0,0,0,0,8,0,0,0,0,0,0,0,0,0,0,0,0,0,0,0,0,0,0,0,0,0,0,0,0,0,0,0,0,0,0,0,0],"split_type":[0,0,0,0,0,0,0,0,0,0,0,0,0,0,0,0,0,0,0,0,0,0,0,0,0,0,0,0,0,0,0,0,0,0,0,0,0,0,0,0,0,0,0,0,0,0,0,0,0,0,0,0,0,0,0,0,0,0,0,0,0,0,0,0,0,0,0,0,0,0,0,0,0,0,0,0,0,0,0,0,0,0,0],"sum_hessian":[1.805519E4,1.0256416E4,7.798773E3,9.977589E3,2.788268E2,6.5394226E2,7.1448306E3,2.4367024E3,7.5408867E3,6.353248E1,2.1529433E2,2.6623914E2,3.8770316E2,7.0712686E3,7.35617E1,2.0082798E3,4.2842245E2,5.34259E3,2.1982969E3,3.9358143E1,2.4174334E1,1.9649365E2,6.974548E1,2.2368375E2,1.6401942E2,3.769137E1,7.0335776E3,2.3289066E1,5.0272633E1,1.8710006E3,1.3727919E2,1.944407E2,2.3398175E2,2.7962585E3,2.5463315E3,1.9602195E3,2.3807735E2,8.021369E0,1.6152964E1,1.6762152E2,2.8872124E1,6.584569E1,3.899794E0,6.2361763E1,1.0165765E2,6.699231E0,3.0992138E1,2.1558784E2,6.8179897E3,1.0433376E1,1.2855691E1,1.1974858E3,6.735148E2,2.927589E1,1.08003296E2,7.2667274E1,1.2177342E2,2.1022472E2,2.3757027E1,5.303204E2,2.2659382E3,2.4394048E3,1.0692669E2,1.1608639E3,7.9935565E2,1.684858E2,6.959156E1,2.491782E0,1.3661182E1,6.518723E0,1.611028E2,2.5475563E1,3.3965614E0,5.3725853E1,1.2119833E1,5.7857647E1,4.380001E1,2.7043009E0,3.9949305E0,1.9633353E2,1.9254313E1,2.226844E0,1.0628846E1],"tree_param":{"num_deleted":"0","num_feature":"51","num_nodes":"83","size_leaf_vector":"1"}},{"base_weights":[3.5801788E-3,-5.15248E-2,9.7656155E-1,8.254404E-1,5.1499244E-2,8.509989E-1,7.659975E-1,3.209717E-1,8.5321385E-1,8.004231E-1,5.462077E-1,4.067586E-2,-1.0897835E-2,8.553632E-1,3.6530745E-1,3.6006424E-1,8.1883067E-1,6.7104954E-1,-3.4864044E-1,1.905316E-2,4.2875774E-2,4.093651E-2,-5.765586E-3,-7.2872855E-2,3.648916E-2,3.477307E-2,4.4262778E-2,-9.362699E-3,3.6499288E-2,-9.599743E-2,3.4232255E-2],"categories":[],"categories_nodes":[],"categories_segments":[],"categories_sizes":[],"default_left":[0,0,0,0,0,0,0,0,0,0,0,0,0,0,0,0,0,0,0,0,0,0,0,0,0,0,0,0,0,0,0],"id":57,"left_children":[1,-1,3,5,-1,7,9,11,13,15,17,-1,-1,19,21,23,25,27,29,-1,-1,-1,